<?xml version="1.0" encoding="US-ASCII"?>


<!--
	Bayesian network in XMLBIF v0.3 (BayesNet Interchange Format)
	Produced by JavaBayes (http://www.cs.cmu.edu/~javabayes/
	Number of nodes:8
	Output created Thu Jan 14 12:47:35 CET 2021
-->



<BIF VERSION="0.3">
<NETWORK>
<NAME>InternalNetwork</NAME>
<!-- Variables -->
<VARIABLE TYPE="nature">
    <NAME>node0</NAME>
    <OUTCOME>state0</OUTCOME>
    <OUTCOME>state1</OUTCOME>
    <PROPERTY>position = (45, 30)</PROPERTY>
</VARIABLE>
<!-- Variables -->
<VARIABLE TYPE="nature">
    <NAME>node1</NAME>
    <OUTCOME>state0</OUTCOME>
    <OUTCOME>state1</OUTCOME>
    <OUTCOME>state2</OUTCOME>
    <PROPERTY>position = (15, 150)</PROPERTY>
</VARIABLE>
<!-- Variables -->
<VARIABLE TYPE="nature">
    <NAME>node2</NAME>
    <OUTCOME>state0</OUTCOME>
    <OUTCOME>state1</OUTCOME>
    <OUTCOME>state2</OUTCOME>
    <PROPERTY>position = (135, 164)</PROPERTY>
</VARIABLE>
<!-- Variables -->
<VARIABLE TYPE="nature">
    <NAME>node3</NAME>
    <OUTCOME>state0</OUTCOME>
    <OUTCOME>state1</OUTCOME>
    <OUTCOME>state2</OUTCOME>
    <OUTCOME>state3</OUTCOME>
    <PROPERTY>position = (255, 150)</PROPERTY>
</VARIABLE>
<!-- Variables -->
<VARIABLE TYPE="nature">
    <NAME>node4</NAME>
    <OUTCOME>state0</OUTCOME>
    <OUTCOME>state1</OUTCOME>
    <OUTCOME>state2</OUTCOME>
    <OUTCOME>state3</OUTCOME>
    <PROPERTY>position = (375, 135)</PROPERTY>
</VARIABLE>
<!-- Variables -->
<VARIABLE TYPE="nature">
    <NAME>node5</NAME>
    <OUTCOME>state0</OUTCOME>
    <OUTCOME>state1</OUTCOME>
    <OUTCOME>state2</OUTCOME>
    <PROPERTY>position = (495, 149)</PROPERTY>
</VARIABLE>
<!-- Variables -->
<VARIABLE TYPE="nature">
    <NAME>node6</NAME>
    <OUTCOME>state0</OUTCOME>
    <OUTCOME>state1</OUTCOME>
    <PROPERTY>position = (615, 164)</PROPERTY>
</VARIABLE>
<!-- Variables -->
<VARIABLE TYPE="nature">
    <NAME>node7</NAME>
    <OUTCOME>state0</OUTCOME>
    <OUTCOME>state1</OUTCOME>
    <OUTCOME>state2</OUTCOME>
    <PROPERTY>position = (735, 150)</PROPERTY>
</VARIABLE>
<!-- Probability Distributions -->
 <DEFINITION>
      <FOR>node0</FOR>
     <TABLE>0.6922 0.3078 </TABLE>
 </DEFINITION>
 <DEFINITION>
      <FOR>node1</FOR>
      <GIVEN>node0</GIVEN>
     <TABLE>0.248 0.6458 0.1062 0.3557 0.2432 0.4011 </TABLE>
 </DEFINITION>
 <DEFINITION>
      <FOR>node2</FOR>
      <GIVEN>node1</GIVEN>
     <TABLE>0.0591 0.4487 0.4922 0.0115 0.0621 0.9264 0.0691 0.2764 0.6545 </TABLE>
 </DEFINITION>
 <DEFINITION>
      <FOR>node3</FOR>
      <GIVEN>node2</GIVEN>
     <TABLE>0.1937 0.225 0.5471 0.0342 0.3914 0.2332 0.2259 0.1495 0.0049 0.4301 0.2539 0.3111 </TABLE>
 </DEFINITION>
 <DEFINITION>
      <FOR>node4</FOR>
      <GIVEN>node3</GIVEN>
     <TABLE>0.0305 0.3756 0.3012 0.2927 0.137 0.1842 0.0038 0.675 0.097 0.5075 0.1854 0.2101 0.1052 0.5453 0.127 0.2225 </TABLE>
 </DEFINITION>
 <DEFINITION>
      <FOR>node5</FOR>
      <GIVEN>node4</GIVEN>
     <TABLE>0.2675 0.4507 0.2818 0.4999 0.394 0.1061 0.5146 0.1808 0.3046 0.7548 0.2044 0.0408 </TABLE>
 </DEFINITION>
 <DEFINITION>
      <FOR>node6</FOR>
      <GIVEN>node5</GIVEN>
     <TABLE>0.8333 0.1667 0.1374 0.8626 0.1882 0.8118 </TABLE>
 </DEFINITION>
 <DEFINITION>
      <FOR>node7</FOR>
      <GIVEN>node6</GIVEN>
     <TABLE>0.1167 0.4228 0.4605 0.2431 0.6267 0.1302 </TABLE>
 </DEFINITION>
</NETWORK>
</BIF>
