<?xml version="1.0" encoding="US-ASCII"?>


<!--
	Bayesian network in XMLBIF v0.3 (BayesNet Interchange Format)
	Produced by JavaBayes (http://www.cs.cmu.edu/~javabayes/
	Number of nodes:6
	Output created Thu Jan 14 12:47:34 CET 2021
-->



<BIF VERSION="0.3">
<NETWORK>
<NAME>InternalNetwork</NAME>
<!-- Variables -->
<VARIABLE TYPE="nature">
    <NAME>node0</NAME>
    <OUTCOME>state0</OUTCOME>
    <OUTCOME>state1</OUTCOME>
    <OUTCOME>state2</OUTCOME>
    <OUTCOME>state3</OUTCOME>
    <PROPERTY>position = (45, 30)</PROPERTY>
</VARIABLE>
<!-- Variables -->
<VARIABLE TYPE="nature">
    <NAME>node1</NAME>
    <OUTCOME>state0</OUTCOME>
    <OUTCOME>state1</OUTCOME>
    <OUTCOME>state2</OUTCOME>
    <PROPERTY>position = (15, 150)</PROPERTY>
</VARIABLE>
<!-- Variables -->
<VARIABLE TYPE="nature">
    <NAME>node2</NAME>
    <OUTCOME>state0</OUTCOME>
    <OUTCOME>state1</OUTCOME>
    <PROPERTY>position = (135, 164)</PROPERTY>
</VARIABLE>
<!-- Variables -->
<VARIABLE TYPE="nature">
    <NAME>node3</NAME>
    <OUTCOME>state0</OUTCOME>
    <OUTCOME>state1</OUTCOME>
    <OUTCOME>state2</OUTCOME>
    <PROPERTY>position = (255, 150)</PROPERTY>
</VARIABLE>
<!-- Variables -->
<VARIABLE TYPE="nature">
    <NAME>node4</NAME>
    <OUTCOME>state0</OUTCOME>
    <OUTCOME>state1</OUTCOME>
    <OUTCOME>state2</OUTCOME>
    <OUTCOME>state3</OUTCOME>
    <PROPERTY>position = (375, 135)</PROPERTY>
</VARIABLE>
<!-- Variables -->
<VARIABLE TYPE="nature">
    <NAME>node5</NAME>
    <OUTCOME>state0</OUTCOME>
    <OUTCOME>state1</OUTCOME>
    <OUTCOME>state2</OUTCOME>
    <OUTCOME>state3</OUTCOME>
    <PROPERTY>position = (495, 149)</PROPERTY>
</VARIABLE>
<!-- Probability Distributions -->
 <DEFINITION>
      <FOR>node0</FOR>
     <TABLE>0.3504 0.0449 0.4427 0.162 </TABLE>
 </DEFINITION>
 <DEFINITION>
      <FOR>node1</FOR>
      <GIVEN>node0</GIVEN>
     <TABLE>0.19 0.4095 0.4005 0.0618 0.5659 0.3723 0.0258 0.5226 0.4516 0.3894 0.4468 0.1638 </TABLE>
 </DEFINITION>
 <DEFINITION>
      <FOR>node2</FOR>
      <GIVEN>node1</GIVEN>
     <TABLE>0.4168 0.5832 0.8132 0.1868 0.7878 0.2122 </TABLE>
 </DEFINITION>
 <DEFINITION>
      <FOR>node3</FOR>
      <GIVEN>node2</GIVEN>
     <TABLE>0.4367 0.1885 0.3748 0.0696 0.8229 0.1075 </TABLE>
 </DEFINITION>
 <DEFINITION>
      <FOR>node4</FOR>
      <GIVEN>node3</GIVEN>
     <TABLE>0.2137 0.5254 0.2469 0.014 0.0856 0.0717 0.4829 0.3598 0.6728 0.0952 0.1597 0.0723 </TABLE>
 </DEFINITION>
 <DEFINITION>
      <FOR>node5</FOR>
      <GIVEN>node4</GIVEN>
     <TABLE>0.3058 0.1868 0.0947 0.4127 0.0784 0.2542 0.2251 0.4423 0.5378 0.0373 0.3952 0.0297 0.1655 0.0161 0.0203 0.7981 </TABLE>
 </DEFINITION>
</NETWORK>
</BIF>
