<?xml version="1.0" encoding="US-ASCII"?>


<!--
	Bayesian network in XMLBIF v0.3 (BayesNet Interchange Format)
	Produced by JavaBayes (http://www.cs.cmu.edu/~javabayes/
	Number of nodes:4
	Output created Wed Jan 20 11:17:10 CET 2021
-->



<BIF VERSION="0.3">
<NETWORK>
<NAME>InternalNetwork</NAME>
<!-- Variables -->
<VARIABLE TYPE="nature">
    <NAME>node0</NAME>
    <OUTCOME>state0</OUTCOME>
    <OUTCOME>state1</OUTCOME>
    <OUTCOME>state2</OUTCOME>
    <OUTCOME>state3</OUTCOME>
    <PROPERTY>position = (44, 270)</PROPERTY>
</VARIABLE>
<!-- Variables -->
<VARIABLE TYPE="nature">
    <NAME>node1</NAME>
    <OUTCOME>state0</OUTCOME>
    <OUTCOME>state1</OUTCOME>
    <OUTCOME>state2</OUTCOME>
    <PROPERTY>position = (45, 30)</PROPERTY>
</VARIABLE>
<!-- Variables -->
<VARIABLE TYPE="nature">
    <NAME>node2</NAME>
    <OUTCOME>state0</OUTCOME>
    <OUTCOME>state1</OUTCOME>
    <OUTCOME>state2</OUTCOME>
    <OUTCOME>state3</OUTCOME>
    <OUTCOME>state4</OUTCOME>
    <PROPERTY>position = (15, 150)</PROPERTY>
</VARIABLE>
<!-- Variables -->
<VARIABLE TYPE="nature">
    <NAME>node3</NAME>
    <OUTCOME>state0</OUTCOME>
    <OUTCOME>state1</OUTCOME>
    <OUTCOME>state2</OUTCOME>
    <OUTCOME>state3</OUTCOME>
    <PROPERTY>position = (165, 44)</PROPERTY>
</VARIABLE>
<!-- Probability Distributions -->
 <DEFINITION>
      <FOR>node0</FOR>
      <GIVEN>node1</GIVEN>
      <GIVEN>node2</GIVEN>
     <TABLE>0.1192 0.0452 0.5676 0.268 0.3581 0.1796 0.4511 0.0112 0.1849 0.4316 0.0033 0.3802 0.3579 0.2022 0.1308 0.3091 0.0074 0.5622 0.1629 0.2675 0.4004 0.1265 0.0713 0.4018 0.1926 0.0666 0.205 0.5358 0.0495 0.0363 0.0978 0.8164 0.2708 0.0124 0.4588 0.258 0.1167 0.2118 0.312 0.3595 0.1215 0.1472 0.5791 0.1522 0.0186 0.036 0.6767 0.2687 0.1082 0.0371 0.4552 0.3995 0.0086 0.6494 0.0083 0.3337 0.6721 0.0512 0.2695 0.0072 </TABLE>
 </DEFINITION>
 <DEFINITION>
      <FOR>node1</FOR>
     <TABLE>0.293 0.2622 0.4448 </TABLE>
 </DEFINITION>
 <DEFINITION>
      <FOR>node2</FOR>
      <GIVEN>node3</GIVEN>
     <TABLE>0.347 0.1812 0.1429 0.0341 0.2948 0.1066 0.1723 0.3198 0.3915 0.0098 0.0222 0.385 0.2709 0.3103 0.0116 0.1184 0.2232 0.0463 0.0912 0.5209 </TABLE>
 </DEFINITION>
 <DEFINITION>
      <FOR>node3</FOR>
     <TABLE>0.0812 0.3245 0.3279 0.2664 </TABLE>
 </DEFINITION>
</NETWORK>
</BIF>
