<?xml version="1.0" encoding="US-ASCII"?>


<!--
	Bayesian network in XMLBIF v0.3 (BayesNet Interchange Format)
	Produced by JavaBayes (http://www.cs.cmu.edu/~javabayes/
	Number of nodes:8
	Output created Thu Jan 14 12:47:35 CET 2021
-->



<BIF VERSION="0.3">
<NETWORK>
<NAME>InternalNetwork</NAME>
<!-- Variables -->
<VARIABLE TYPE="nature">
    <NAME>node0</NAME>
    <OUTCOME>state0</OUTCOME>
    <OUTCOME>state1</OUTCOME>
    <PROPERTY>position = (15, 150)</PROPERTY>
</VARIABLE>
<!-- Variables -->
<VARIABLE TYPE="nature">
    <NAME>node1</NAME>
    <OUTCOME>state0</OUTCOME>
    <OUTCOME>state1</OUTCOME>
    <OUTCOME>state2</OUTCOME>
    <PROPERTY>position = (45, 30)</PROPERTY>
</VARIABLE>
<!-- Variables -->
<VARIABLE TYPE="nature">
    <NAME>node2</NAME>
    <OUTCOME>state0</OUTCOME>
    <OUTCOME>state1</OUTCOME>
    <OUTCOME>state2</OUTCOME>
    <OUTCOME>state3</OUTCOME>
    <PROPERTY>position = (44, 270)</PROPERTY>
</VARIABLE>
<!-- Variables -->
<VARIABLE TYPE="nature">
    <NAME>node3</NAME>
    <OUTCOME>state0</OUTCOME>
    <OUTCOME>state1</OUTCOME>
    <OUTCOME>state2</OUTCOME>
    <PROPERTY>position = (135, 164)</PROPERTY>
</VARIABLE>
<!-- Variables -->
<VARIABLE TYPE="nature">
    <NAME>node4</NAME>
    <OUTCOME>state0</OUTCOME>
    <OUTCOME>state1</OUTCOME>
    <PROPERTY>position = (165, 44)</PROPERTY>
</VARIABLE>
<!-- Variables -->
<VARIABLE TYPE="nature">
    <NAME>node5</NAME>
    <OUTCOME>state0</OUTCOME>
    <OUTCOME>state1</OUTCOME>
    <OUTCOME>state2</OUTCOME>
    <OUTCOME>state3</OUTCOME>
    <PROPERTY>position = (255, 150)</PROPERTY>
</VARIABLE>
<!-- Variables -->
<VARIABLE TYPE="nature">
    <NAME>node6</NAME>
    <OUTCOME>state0</OUTCOME>
    <OUTCOME>state1</OUTCOME>
    <OUTCOME>state2</OUTCOME>
    <OUTCOME>state3</OUTCOME>
    <PROPERTY>position = (375, 135)</PROPERTY>
</VARIABLE>
<!-- Variables -->
<VARIABLE TYPE="nature">
    <NAME>node7</NAME>
    <OUTCOME>state0</OUTCOME>
    <OUTCOME>state1</OUTCOME>
    <OUTCOME>state2</OUTCOME>
    <OUTCOME>state3</OUTCOME>
    <PROPERTY>position = (495, 149)</PROPERTY>
</VARIABLE>
<!-- Probability Distributions -->
 <DEFINITION>
      <FOR>node0</FOR>
      <GIVEN>node3</GIVEN>
     <TABLE>0.5179 0.4821 0.959 0.041 0.3515 0.6485 </TABLE>
 </DEFINITION>
 <DEFINITION>
      <FOR>node1</FOR>
     <TABLE>0.2095 0.6614 0.1291 </TABLE>
 </DEFINITION>
 <DEFINITION>
      <FOR>node2</FOR>
      <GIVEN>node5</GIVEN>
      <GIVEN>node3</GIVEN>
     <TABLE>0.6087 0.0441 0.1406 0.2066 0.2434 0.351 0.3503 0.0553 0.2802 0.0539 0.5517 0.1142 0.2667 0.3817 0.0497 0.3019 0.5907 0.0624 0.1104 0.2365 0.1803 0.1897 0.3591 0.2709 0.5539 0.0124 0.3872 0.0465 0.3745 0.2502 0.2531 0.1222 0.454 0.1734 0.1934 0.1792 0.0908 0.0361 0.4159 0.4572 0.1655 0.4762 0.1983 0.16 0.405 0.1815 0.2819 0.1316 </TABLE>
 </DEFINITION>
 <DEFINITION>
      <FOR>node3</FOR>
      <GIVEN>node7</GIVEN>
     <TABLE>0.8 0.0581 0.1419 0.6157 0.2969 0.0874 0.2745 0.3385 0.387 0.0609 0.7615 0.1776 </TABLE>
 </DEFINITION>
 <DEFINITION>
      <FOR>node4</FOR>
     <TABLE>0.9415 0.0585 </TABLE>
 </DEFINITION>
 <DEFINITION>
      <FOR>node5</FOR>
      <GIVEN>node1</GIVEN>
     <TABLE>0.3309 0.1561 0.1821 0.3309 0.2153 0.1548 0.1743 0.4556 0.0015 0.053 0.0813 0.8642 </TABLE>
 </DEFINITION>
 <DEFINITION>
      <FOR>node6</FOR>
      <GIVEN>node1</GIVEN>
     <TABLE>0.509 0.0597 0.341 0.0903 0.6766 0.0113 0.1887 0.1234 0.0454 0.256 0.581 0.1176 </TABLE>
 </DEFINITION>
 <DEFINITION>
      <FOR>node7</FOR>
      <GIVEN>node4</GIVEN>
     <TABLE>0.5094 0.0457 0.1922 0.2527 0.667 0.2033 0.0033 0.1264 </TABLE>
 </DEFINITION>
</NETWORK>
</BIF>
