<?xml version="1.0" encoding="US-ASCII"?>


<!--
	Bayesian network in XMLBIF v0.3 (BayesNet Interchange Format)
	Produced by JavaBayes (http://www.cs.cmu.edu/~javabayes/
	Number of nodes:10
	Output created Fri Feb 12 19:04:33 CET 2021
-->



<BIF VERSION="0.3">
<NETWORK>
<NAME>InternalNetwork</NAME>
<!-- Variables -->
<VARIABLE TYPE="nature">
    <NAME>node0</NAME>
    <OUTCOME>state0</OUTCOME>
    <OUTCOME>state1</OUTCOME>
    <OUTCOME>state2</OUTCOME>
    <PROPERTY>position = (45, 30)</PROPERTY>
</VARIABLE>
<!-- Variables -->
<VARIABLE TYPE="nature">
    <NAME>node1</NAME>
    <OUTCOME>state0</OUTCOME>
    <OUTCOME>state1</OUTCOME>
    <OUTCOME>state2</OUTCOME>
    <PROPERTY>position = (165, 44)</PROPERTY>
</VARIABLE>
<!-- Variables -->
<VARIABLE TYPE="nature">
    <NAME>node2</NAME>
    <OUTCOME>state0</OUTCOME>
    <OUTCOME>state1</OUTCOME>
    <PROPERTY>position = (15, 150)</PROPERTY>
</VARIABLE>
<!-- Variables -->
<VARIABLE TYPE="nature">
    <NAME>node3</NAME>
    <OUTCOME>state0</OUTCOME>
    <OUTCOME>state1</OUTCOME>
    <PROPERTY>position = (135, 164)</PROPERTY>
</VARIABLE>
<!-- Variables -->
<VARIABLE TYPE="nature">
    <NAME>node4</NAME>
    <OUTCOME>state0</OUTCOME>
    <OUTCOME>state1</OUTCOME>
    <OUTCOME>state2</OUTCOME>
    <OUTCOME>state3</OUTCOME>
    <PROPERTY>position = (44, 270)</PROPERTY>
</VARIABLE>
<!-- Variables -->
<VARIABLE TYPE="nature">
    <NAME>node5</NAME>
    <OUTCOME>state0</OUTCOME>
    <OUTCOME>state1</OUTCOME>
    <OUTCOME>state2</OUTCOME>
    <OUTCOME>state3</OUTCOME>
    <PROPERTY>position = (285, 30)</PROPERTY>
</VARIABLE>
<!-- Variables -->
<VARIABLE TYPE="nature">
    <NAME>node6</NAME>
    <OUTCOME>state0</OUTCOME>
    <OUTCOME>state1</OUTCOME>
    <OUTCOME>state2</OUTCOME>
    <OUTCOME>state3</OUTCOME>
    <PROPERTY>position = (164, 284)</PROPERTY>
</VARIABLE>
<!-- Variables -->
<VARIABLE TYPE="nature">
    <NAME>node7</NAME>
    <OUTCOME>state0</OUTCOME>
    <OUTCOME>state1</OUTCOME>
    <OUTCOME>state2</OUTCOME>
    <OUTCOME>state3</OUTCOME>
    <PROPERTY>position = (405, 15)</PROPERTY>
</VARIABLE>
<!-- Variables -->
<VARIABLE TYPE="nature">
    <NAME>node8</NAME>
    <OUTCOME>state0</OUTCOME>
    <OUTCOME>state1</OUTCOME>
    <OUTCOME>state2</OUTCOME>
    <PROPERTY>position = (255, 150)</PROPERTY>
</VARIABLE>
<!-- Variables -->
<VARIABLE TYPE="nature">
    <NAME>node9</NAME>
    <OUTCOME>state0</OUTCOME>
    <OUTCOME>state1</OUTCOME>
    <OUTCOME>state2</OUTCOME>
    <PROPERTY>position = (284, 270)</PROPERTY>
</VARIABLE>
<!-- Probability Distributions -->
 <DEFINITION>
      <FOR>node0</FOR>
     <TABLE>0.0296 0.5417 0.4287 </TABLE>
 </DEFINITION>
 <DEFINITION>
      <FOR>node1</FOR>
     <TABLE>0.6657 0.2611 0.0732 </TABLE>
 </DEFINITION>
 <DEFINITION>
      <FOR>node2</FOR>
      <GIVEN>node9</GIVEN>
     <TABLE>0.8311 0.1689 0.6298 0.3702 0.6322 0.3678 </TABLE>
 </DEFINITION>
 <DEFINITION>
      <FOR>node3</FOR>
      <GIVEN>node8</GIVEN>
     <TABLE>0.0571 0.9429 0.5809 0.4191 0.1598 0.8402 </TABLE>
 </DEFINITION>
 <DEFINITION>
      <FOR>node4</FOR>
      <GIVEN>node6</GIVEN>
      <GIVEN>node0</GIVEN>
     <TABLE>0.4901 0.01 0.4828 0.0171 0.2458 0.2041 0.358 0.1921 0.0224 0.0726 0.586 0.319 0.655 0.281 0.0054 0.0586 0.0133 0.4129 0.2143 0.3595 0.0219 0.0143 0.749 0.2148 0.3578 0.0967 0.1122 0.4333 0.7106 0.0052 0.0765 0.2077 0.1445 0.1902 0.258 0.4073 0.1971 0.4718 0.2171 0.114 0.0675 0.1375 0.0519 0.7431 0.5715 0.2204 0.0172 0.1909 </TABLE>
 </DEFINITION>
 <DEFINITION>
      <FOR>node5</FOR>
     <TABLE>0.0041 0.0942 0.6735 0.2282 </TABLE>
 </DEFINITION>
 <DEFINITION>
      <FOR>node6</FOR>
      <GIVEN>node1</GIVEN>
      <GIVEN>node5</GIVEN>
     <TABLE>0.4171 0.4717 0.1067 0.0045 0.511 0.0596 0.1495 0.2799 0.6532 0.3293 0.0119 0.0056 0.0138 0.3802 0.0223 0.5837 0.2157 0.5255 0.232 0.0268 0.3769 0.0988 0.1012 0.4231 0.4967 0.1927 0.2878 0.0228 0.0081 0.6617 0.139 0.1912 0.0101 0.1641 0.5624 0.2634 0.3576 0.2286 0.1946 0.2192 0.1943 0.6979 0.0391 0.0687 0.0123 0.6586 0.2529 0.0762 </TABLE>
 </DEFINITION>
 <DEFINITION>
      <FOR>node7</FOR>
     <TABLE>0.215 0.0497 0.2375 0.4978 </TABLE>
 </DEFINITION>
 <DEFINITION>
      <FOR>node8</FOR>
      <GIVEN>node1</GIVEN>
     <TABLE>0.1049 0.6402 0.2549 0.2839 0.4058 0.3103 0.5166 0.1795 0.3039 </TABLE>
 </DEFINITION>
 <DEFINITION>
      <FOR>node9</FOR>
      <GIVEN>node7</GIVEN>
      <GIVEN>node8</GIVEN>
     <TABLE>0.6753 0.0186 0.3061 0.5117 0.1952 0.2931 0.0816 0.9088 0.0096 0.2461 0.2494 0.5045 0.6797 0.0368 0.2835 0.8309 0.0934 0.0757 0.165 0.8044 0.0306 0.2197 0.1976 0.5827 0.3798 0.461 0.1592 0.2883 0.0618 0.6499 0.667 0.2849 0.0481 0.2228 0.3466 0.4306 </TABLE>
 </DEFINITION>
</NETWORK>
</BIF>
