<?xml version="1.0" encoding="US-ASCII"?>


<!--
	Bayesian network in XMLBIF v0.3 (BayesNet Interchange Format)
	Produced by JavaBayes (http://www.cs.cmu.edu/~javabayes/
	Number of nodes:4
	Output created Thu Jan 14 12:47:34 CET 2021
-->



<BIF VERSION="0.3">
<NETWORK>
<NAME>InternalNetwork</NAME>
<!-- Variables -->
<VARIABLE TYPE="nature">
    <NAME>node0</NAME>
    <OUTCOME>state0</OUTCOME>
    <OUTCOME>state1</OUTCOME>
    <OUTCOME>state2</OUTCOME>
    <OUTCOME>state3</OUTCOME>
    <PROPERTY>position = (44, 270)</PROPERTY>
</VARIABLE>
<!-- Variables -->
<VARIABLE TYPE="nature">
    <NAME>node1</NAME>
    <OUTCOME>state0</OUTCOME>
    <OUTCOME>state1</OUTCOME>
    <OUTCOME>state2</OUTCOME>
    <OUTCOME>state3</OUTCOME>
    <OUTCOME>state4</OUTCOME>
    <PROPERTY>position = (45, 30)</PROPERTY>
</VARIABLE>
<!-- Variables -->
<VARIABLE TYPE="nature">
    <NAME>node2</NAME>
    <OUTCOME>state0</OUTCOME>
    <OUTCOME>state1</OUTCOME>
    <OUTCOME>state2</OUTCOME>
    <OUTCOME>state3</OUTCOME>
    <OUTCOME>state4</OUTCOME>
    <PROPERTY>position = (165, 44)</PROPERTY>
</VARIABLE>
<!-- Variables -->
<VARIABLE TYPE="nature">
    <NAME>node3</NAME>
    <OUTCOME>state0</OUTCOME>
    <OUTCOME>state1</OUTCOME>
    <OUTCOME>state2</OUTCOME>
    <OUTCOME>state3</OUTCOME>
    <OUTCOME>state4</OUTCOME>
    <PROPERTY>position = (15, 150)</PROPERTY>
</VARIABLE>
<!-- Probability Distributions -->
 <DEFINITION>
      <FOR>node0</FOR>
      <GIVEN>node3</GIVEN>
      <GIVEN>node1</GIVEN>
     <TABLE>0.4273 0.1694 0.0892 0.3141 0.7205 0.0697 0.0274 0.1824 0.5215 0.245 0.107 0.1265 0.2584 0.1217 0.428 0.1919 0.2105 0.6517 0.1313 0.0065 0.327 0.5558 0.0094 0.1078 0.2763 0.3885 0.1807 0.1545 0.5502 0.0285 0.3438 0.0775 0.2396 0.1389 0.0957 0.5258 0.1334 0.6171 0.1195 0.13 0.3072 0.171 0.1122 0.4096 0.1858 0.3914 0.4094 0.0134 0.3076 0.054 0.2741 0.3643 0.1358 0.2336 0.5814 0.0492 0.7142 0.1024 0.0904 0.093 0.5752 0.0588 0.0972 0.2688 0.584 0.0595 0.2551 0.1014 0.5135 0.1584 0.0105 0.3176 0.2875 0.1685 0.4004 0.1436 0.3923 0.3243 0.2213 0.0621 0.3408 0.0709 0.3967 0.1916 0.0889 0.3707 0.3357 0.2047 0.2265 0.6541 0.1055 0.0139 0.1241 0.0918 0.7366 0.0475 0.0643 0.0572 0.052 0.8265 </TABLE>
 </DEFINITION>
 <DEFINITION>
      <FOR>node1</FOR>
     <TABLE>0.2596 0.2422 0.2788 0.0303 0.1891 </TABLE>
 </DEFINITION>
 <DEFINITION>
      <FOR>node2</FOR>
     <TABLE>0.0308 0.4856 0.07 0.2347 0.1789 </TABLE>
 </DEFINITION>
 <DEFINITION>
      <FOR>node3</FOR>
      <GIVEN>node2</GIVEN>
     <TABLE>0.1293 0.3469 0.3354 0.1242 0.0642 0.0184 0.0302 0.2087 0.6419 0.1008 0.0143 0.2305 0.1649 0.5012 0.0891 0.0224 0.2722 0.4813 0.1174 0.1067 0.3357 0.1585 0.0506 0.1673 0.2879 </TABLE>
 </DEFINITION>
</NETWORK>
</BIF>
