<?xml version="1.0" encoding="US-ASCII"?>


<!--
	Bayesian network in XMLBIF v0.3 (BayesNet Interchange Format)
	Produced by JavaBayes (http://www.cs.cmu.edu/~javabayes/
	Number of nodes:10
	Output created Thu Jan 14 12:47:35 CET 2021
-->



<BIF VERSION="0.3">
<NETWORK>
<NAME>InternalNetwork</NAME>
<!-- Variables -->
<VARIABLE TYPE="nature">
    <NAME>node0</NAME>
    <OUTCOME>state0</OUTCOME>
    <OUTCOME>state1</OUTCOME>
    <OUTCOME>state2</OUTCOME>
    <OUTCOME>state3</OUTCOME>
    <OUTCOME>state4</OUTCOME>
    <PROPERTY>position = (44, 270)</PROPERTY>
</VARIABLE>
<!-- Variables -->
<VARIABLE TYPE="nature">
    <NAME>node1</NAME>
    <OUTCOME>state0</OUTCOME>
    <OUTCOME>state1</OUTCOME>
    <PROPERTY>position = (45, 30)</PROPERTY>
</VARIABLE>
<!-- Variables -->
<VARIABLE TYPE="nature">
    <NAME>node2</NAME>
    <OUTCOME>state0</OUTCOME>
    <OUTCOME>state1</OUTCOME>
    <OUTCOME>state2</OUTCOME>
    <PROPERTY>position = (165, 44)</PROPERTY>
</VARIABLE>
<!-- Variables -->
<VARIABLE TYPE="nature">
    <NAME>node3</NAME>
    <OUTCOME>state0</OUTCOME>
    <OUTCOME>state1</OUTCOME>
    <OUTCOME>state2</OUTCOME>
    <OUTCOME>state3</OUTCOME>
    <PROPERTY>position = (15, 150)</PROPERTY>
</VARIABLE>
<!-- Variables -->
<VARIABLE TYPE="nature">
    <NAME>node4</NAME>
    <OUTCOME>state0</OUTCOME>
    <OUTCOME>state1</OUTCOME>
    <PROPERTY>position = (285, 30)</PROPERTY>
</VARIABLE>
<!-- Variables -->
<VARIABLE TYPE="nature">
    <NAME>node5</NAME>
    <OUTCOME>state0</OUTCOME>
    <OUTCOME>state1</OUTCOME>
    <OUTCOME>state2</OUTCOME>
    <OUTCOME>state3</OUTCOME>
    <OUTCOME>state4</OUTCOME>
    <PROPERTY>position = (405, 15)</PROPERTY>
</VARIABLE>
<!-- Variables -->
<VARIABLE TYPE="nature">
    <NAME>node6</NAME>
    <OUTCOME>state0</OUTCOME>
    <OUTCOME>state1</OUTCOME>
    <OUTCOME>state2</OUTCOME>
    <PROPERTY>position = (135, 164)</PROPERTY>
</VARIABLE>
<!-- Variables -->
<VARIABLE TYPE="nature">
    <NAME>node7</NAME>
    <OUTCOME>state0</OUTCOME>
    <OUTCOME>state1</OUTCOME>
    <OUTCOME>state2</OUTCOME>
    <PROPERTY>position = (255, 150)</PROPERTY>
</VARIABLE>
<!-- Variables -->
<VARIABLE TYPE="nature">
    <NAME>node8</NAME>
    <OUTCOME>state0</OUTCOME>
    <OUTCOME>state1</OUTCOME>
    <OUTCOME>state2</OUTCOME>
    <OUTCOME>state3</OUTCOME>
    <OUTCOME>state4</OUTCOME>
    <PROPERTY>position = (15, 390)</PROPERTY>
</VARIABLE>
<!-- Variables -->
<VARIABLE TYPE="nature">
    <NAME>node9</NAME>
    <OUTCOME>state0</OUTCOME>
    <OUTCOME>state1</OUTCOME>
    <PROPERTY>position = (375, 135)</PROPERTY>
</VARIABLE>
<!-- Probability Distributions -->
 <DEFINITION>
      <FOR>node0</FOR>
      <GIVEN>node2</GIVEN>
      <GIVEN>node4</GIVEN>
     <TABLE>0.1452 0.163 0.0593 0.1261 0.5064 0.0629 0.2213 0.3215 0.304 0.0903 0.3055 0.171 0.0565 0.1128 0.3542 0.3496 0.2751 0.2022 0.0678 0.1053 0.1751 0.1604 0.4212 0.0975 0.1458 0.2905 0.1173 0.372 0.0048 0.2154 </TABLE>
 </DEFINITION>
 <DEFINITION>
      <FOR>node1</FOR>
     <TABLE>0.5509 0.4491 </TABLE>
 </DEFINITION>
 <DEFINITION>
      <FOR>node2</FOR>
     <TABLE>0.1482 0.6166 0.2352 </TABLE>
 </DEFINITION>
 <DEFINITION>
      <FOR>node3</FOR>
      <GIVEN>node7</GIVEN>
     <TABLE>0.4312 0.0757 0.2773 0.2158 0.1803 0.2575 0.0338 0.5284 0.254 0.4299 0.0667 0.2494 </TABLE>
 </DEFINITION>
 <DEFINITION>
      <FOR>node4</FOR>
     <TABLE>0.8537 0.1463 </TABLE>
 </DEFINITION>
 <DEFINITION>
      <FOR>node5</FOR>
     <TABLE>0.0323 0.4257 0.2828 0.0388 0.2204 </TABLE>
 </DEFINITION>
 <DEFINITION>
      <FOR>node6</FOR>
      <GIVEN>node2</GIVEN>
     <TABLE>0.2451 0.5427 0.2122 0.2173 0.2965 0.4862 0.0741 0.9071 0.0188 </TABLE>
 </DEFINITION>
 <DEFINITION>
      <FOR>node7</FOR>
      <GIVEN>node1</GIVEN>
     <TABLE>0.2552 0.4152 0.3296 0.7211 0.1124 0.1665 </TABLE>
 </DEFINITION>
 <DEFINITION>
      <FOR>node8</FOR>
      <GIVEN>node4</GIVEN>
      <GIVEN>node5</GIVEN>
      <GIVEN>node7</GIVEN>
     <TABLE>0.3366 0.1004 0.3192 0.188 0.0558 0.3232 0.0154 0.1735 0.0537 0.4342 0.1701 0.0035 0.1893 0.3323 0.3048 0.0047 0.0302 0.5291 0.3845 0.0515 0.0784 0.0053 0.5211 0.0331 0.3621 0.0255 0.2245 0.1708 0.1769 0.4023 0.0914 0.0682 0.4722 0.1662 0.202 0.332 0.3174 0.0506 0.1883 0.1117 0.5629 0.0074 0.0665 0.1238 0.2394 0.0102 0.4803 0.0933 0.1537 0.2625 0.3538 0.0856 0.1258 0.233 0.2018 0.152 0.3932 0.2102 0.1969 0.0477 0.1734 0.6048 0.0374 0.0735 0.1109 0.0366 0.2212 0.3639 0.3292 0.0491 0.3345 0.145 0.0176 0.3339 0.169 0.0159 0.01 0.2143 0.7362 0.0236 0.4565 0.0298 0.0682 0.2933 0.1522 0.1108 0.0369 0.162 0.4253 0.265 0.0021 0.5041 0.285 0.094 0.1148 0.168 0.1563 0.1643 0.4263 0.0851 0.0322 0.0686 0.079 0.4087 0.4115 0.2762 0.1633 0.2685 0.2799 0.0121 0.3554 0.4053 0.0581 0.1115 0.0697 0.3461 0.4103 0.1058 0.0462 0.0916 0.2937 0.1159 0.0921 0.0118 0.4865 0.1386 0.443 0.158 0.2333 0.0271 0.5209 0.036 0.0396 0.3795 0.024 0.2201 0.0035 0.187 0.5353 0.0541 0.0437 0.563 0.1726 0.1763 0.0444 0.0096 0.0923 0.1603 0.6684 0.0694 </TABLE>
 </DEFINITION>
 <DEFINITION>
      <FOR>node9</FOR>
      <GIVEN>node7</GIVEN>
     <TABLE>0.5948 0.4052 0.5093 0.4907 0.4253 0.5747 </TABLE>
 </DEFINITION>
</NETWORK>
</BIF>
