<?xml version="1.0" encoding="US-ASCII"?>


<!--
	Bayesian network in XMLBIF v0.3 (BayesNet Interchange Format)
	Produced by JavaBayes (http://www.cs.cmu.edu/~javabayes/
	Number of nodes:4
	Output created Thu Jan 14 12:47:34 CET 2021
-->



<BIF VERSION="0.3">
<NETWORK>
<NAME>InternalNetwork</NAME>
<!-- Variables -->
<VARIABLE TYPE="nature">
    <NAME>node0</NAME>
    <OUTCOME>state0</OUTCOME>
    <OUTCOME>state1</OUTCOME>
    <PROPERTY>position = (44, 270)</PROPERTY>
</VARIABLE>
<!-- Variables -->
<VARIABLE TYPE="nature">
    <NAME>node1</NAME>
    <OUTCOME>state0</OUTCOME>
    <OUTCOME>state1</OUTCOME>
    <OUTCOME>state2</OUTCOME>
    <OUTCOME>state3</OUTCOME>
    <OUTCOME>state4</OUTCOME>
    <PROPERTY>position = (45, 30)</PROPERTY>
</VARIABLE>
<!-- Variables -->
<VARIABLE TYPE="nature">
    <NAME>node2</NAME>
    <OUTCOME>state0</OUTCOME>
    <OUTCOME>state1</OUTCOME>
    <OUTCOME>state2</OUTCOME>
    <OUTCOME>state3</OUTCOME>
    <PROPERTY>position = (15, 150)</PROPERTY>
</VARIABLE>
<!-- Variables -->
<VARIABLE TYPE="nature">
    <NAME>node3</NAME>
    <OUTCOME>state0</OUTCOME>
    <OUTCOME>state1</OUTCOME>
    <OUTCOME>state2</OUTCOME>
    <OUTCOME>state3</OUTCOME>
    <PROPERTY>position = (165, 44)</PROPERTY>
</VARIABLE>
<!-- Probability Distributions -->
 <DEFINITION>
      <FOR>node0</FOR>
      <GIVEN>node2</GIVEN>
      <GIVEN>node3</GIVEN>
     <TABLE>0.159 0.841 0.5943 0.4057 0.2679 0.7321 0.7017 0.2983 0.9038 0.0962 0.7954 0.2046 0.5273 0.4727 0.1234 0.8766 0.1237 0.8763 0.7358 0.2642 0.8959 0.1041 0.992 0.008 0.4335 0.5665 0.9359 0.0641 0.3865 0.6135 0.8092 0.1908 </TABLE>
 </DEFINITION>
 <DEFINITION>
      <FOR>node1</FOR>
     <TABLE>0.2472 0.0536 0.0523 0.1512 0.4957 </TABLE>
 </DEFINITION>
 <DEFINITION>
      <FOR>node2</FOR>
      <GIVEN>node1</GIVEN>
     <TABLE>0.365 0.1017 0.0401 0.4932 0.5016 0.0451 0.1793 0.274 0.52 0.1839 0.2479 0.0482 0.0892 0.2096 0.2375 0.4637 0.1337 0.6783 0.1656 0.0224 </TABLE>
 </DEFINITION>
 <DEFINITION>
      <FOR>node3</FOR>
     <TABLE>0.3035 0.3542 0.0308 0.3115 </TABLE>
 </DEFINITION>
</NETWORK>
</BIF>
