<?xml version="1.0" encoding="US-ASCII"?>


<!--
	Bayesian network in XMLBIF v0.3 (BayesNet Interchange Format)
	Produced by JavaBayes (http://www.cs.cmu.edu/~javabayes/
	Number of nodes:7
	Output created Wed Feb 17 10:47:29 CET 2021
-->



<BIF VERSION="0.3">
<NETWORK>
<NAME>InternalNetwork</NAME>
<!-- Variables -->
<VARIABLE TYPE="nature">
    <NAME>node0</NAME>
    <OUTCOME>state0</OUTCOME>
    <OUTCOME>state1</OUTCOME>
    <OUTCOME>state2</OUTCOME>
    <OUTCOME>state3</OUTCOME>
    <PROPERTY>position = (15, 150)</PROPERTY>
</VARIABLE>
<!-- Variables -->
<VARIABLE TYPE="nature">
    <NAME>node1</NAME>
    <OUTCOME>state0</OUTCOME>
    <OUTCOME>state1</OUTCOME>
    <OUTCOME>state2</OUTCOME>
    <OUTCOME>state3</OUTCOME>
    <PROPERTY>position = (45, 30)</PROPERTY>
</VARIABLE>
<!-- Variables -->
<VARIABLE TYPE="nature">
    <NAME>node2</NAME>
    <OUTCOME>state0</OUTCOME>
    <OUTCOME>state1</OUTCOME>
    <OUTCOME>state2</OUTCOME>
    <OUTCOME>state3</OUTCOME>
    <PROPERTY>position = (135, 164)</PROPERTY>
</VARIABLE>
<!-- Variables -->
<VARIABLE TYPE="nature">
    <NAME>node3</NAME>
    <OUTCOME>state0</OUTCOME>
    <OUTCOME>state1</OUTCOME>
    <OUTCOME>state2</OUTCOME>
    <PROPERTY>position = (44, 270)</PROPERTY>
</VARIABLE>
<!-- Variables -->
<VARIABLE TYPE="nature">
    <NAME>node4</NAME>
    <OUTCOME>state0</OUTCOME>
    <OUTCOME>state1</OUTCOME>
    <PROPERTY>position = (255, 150)</PROPERTY>
</VARIABLE>
<!-- Variables -->
<VARIABLE TYPE="nature">
    <NAME>node5</NAME>
    <OUTCOME>state0</OUTCOME>
    <OUTCOME>state1</OUTCOME>
    <OUTCOME>state2</OUTCOME>
    <OUTCOME>state3</OUTCOME>
    <PROPERTY>position = (165, 44)</PROPERTY>
</VARIABLE>
<!-- Variables -->
<VARIABLE TYPE="nature">
    <NAME>node6</NAME>
    <OUTCOME>state0</OUTCOME>
    <OUTCOME>state1</OUTCOME>
    <OUTCOME>state2</OUTCOME>
    <OUTCOME>state3</OUTCOME>
    <PROPERTY>position = (375, 135)</PROPERTY>
</VARIABLE>
<!-- Probability Distributions -->
 <DEFINITION>
      <FOR>node0</FOR>
      <GIVEN>node5</GIVEN>
     <TABLE>0.6684 0.2561 0.0268 0.0487 0.0519 0.3394 0.5936 0.0151 0.3176 0.0681 0.0275 0.5868 0.1038 0.0957 0.0602 0.7403 </TABLE>
 </DEFINITION>
 <DEFINITION>
      <FOR>node1</FOR>
     <TABLE>0.5246 0.2683 0.1127 0.0944 </TABLE>
 </DEFINITION>
 <DEFINITION>
      <FOR>node2</FOR>
      <GIVEN>node1</GIVEN>
     <TABLE>0.0979 0.0548 0.205 0.6423 0.0672 0.0843 0.253 0.5955 0.1018 0.2785 0.5867 0.033 0.0732 0.1197 0.3729 0.4342 </TABLE>
 </DEFINITION>
 <DEFINITION>
      <FOR>node3</FOR>
      <GIVEN>node2</GIVEN>
      <GIVEN>node5</GIVEN>
     <TABLE>0.733 0.2148 0.0522 0.6847 0.0982 0.2171 0.2654 0.1912 0.5434 0.4478 0.5306 0.0216 0.2333 0.2109 0.5558 0.4736 0.1314 0.395 0.5713 0.1401 0.2886 0.2688 0.1575 0.5737 0.7877 0.0018 0.2105 0.5955 0.2994 0.1051 0.888 0.0498 0.0622 0.348 0.3411 0.3109 0.2952 0.5142 0.1906 0.4945 0.1581 0.3474 0.555 0.2679 0.1771 0.0793 0.6083 0.3124 </TABLE>
 </DEFINITION>
 <DEFINITION>
      <FOR>node4</FOR>
      <GIVEN>node1</GIVEN>
     <TABLE>0.4402 0.5598 0.2158 0.7842 0.6939 0.3061 0.4836 0.5164 </TABLE>
 </DEFINITION>
 <DEFINITION>
      <FOR>node5</FOR>
     <TABLE>0.3283 0.1526 0.4122 0.1069 </TABLE>
 </DEFINITION>
 <DEFINITION>
      <FOR>node6</FOR>
      <GIVEN>node3</GIVEN>
     <TABLE>0.123 0.216 0.4887 0.1723 0.0014 0.4054 0.013 0.5802 0.4813 0.0971 0.0179 0.4037 </TABLE>
 </DEFINITION>
</NETWORK>
</BIF>
