<?xml version="1.0" encoding="US-ASCII"?>


<!--
	Bayesian network in XMLBIF v0.3 (BayesNet Interchange Format)
	Produced by JavaBayes (http://www.cs.cmu.edu/~javabayes/
	Number of nodes:10
	Output created Fri Feb 12 19:04:33 CET 2021
-->



<BIF VERSION="0.3">
<NETWORK>
<NAME>InternalNetwork</NAME>
<!-- Variables -->
<VARIABLE TYPE="nature">
    <NAME>node0</NAME>
    <OUTCOME>state0</OUTCOME>
    <OUTCOME>state1</OUTCOME>
    <OUTCOME>state2</OUTCOME>
    <OUTCOME>state3</OUTCOME>
    <PROPERTY>position = (45, 30)</PROPERTY>
</VARIABLE>
<!-- Variables -->
<VARIABLE TYPE="nature">
    <NAME>node1</NAME>
    <OUTCOME>state0</OUTCOME>
    <OUTCOME>state1</OUTCOME>
    <PROPERTY>position = (15, 150)</PROPERTY>
</VARIABLE>
<!-- Variables -->
<VARIABLE TYPE="nature">
    <NAME>node2</NAME>
    <OUTCOME>state0</OUTCOME>
    <OUTCOME>state1</OUTCOME>
    <OUTCOME>state2</OUTCOME>
    <OUTCOME>state3</OUTCOME>
    <PROPERTY>position = (165, 44)</PROPERTY>
</VARIABLE>
<!-- Variables -->
<VARIABLE TYPE="nature">
    <NAME>node3</NAME>
    <OUTCOME>state0</OUTCOME>
    <OUTCOME>state1</OUTCOME>
    <PROPERTY>position = (135, 164)</PROPERTY>
</VARIABLE>
<!-- Variables -->
<VARIABLE TYPE="nature">
    <NAME>node4</NAME>
    <OUTCOME>state0</OUTCOME>
    <OUTCOME>state1</OUTCOME>
    <OUTCOME>state2</OUTCOME>
    <OUTCOME>state3</OUTCOME>
    <PROPERTY>position = (44, 510)</PROPERTY>
</VARIABLE>
<!-- Variables -->
<VARIABLE TYPE="nature">
    <NAME>node5</NAME>
    <OUTCOME>state0</OUTCOME>
    <OUTCOME>state1</OUTCOME>
    <OUTCOME>state2</OUTCOME>
    <OUTCOME>state3</OUTCOME>
    <PROPERTY>position = (44, 270)</PROPERTY>
</VARIABLE>
<!-- Variables -->
<VARIABLE TYPE="nature">
    <NAME>node6</NAME>
    <OUTCOME>state0</OUTCOME>
    <OUTCOME>state1</OUTCOME>
    <OUTCOME>state2</OUTCOME>
    <OUTCOME>state3</OUTCOME>
    <PROPERTY>position = (285, 30)</PROPERTY>
</VARIABLE>
<!-- Variables -->
<VARIABLE TYPE="nature">
    <NAME>node7</NAME>
    <OUTCOME>state0</OUTCOME>
    <OUTCOME>state1</OUTCOME>
    <OUTCOME>state2</OUTCOME>
    <PROPERTY>position = (255, 150)</PROPERTY>
</VARIABLE>
<!-- Variables -->
<VARIABLE TYPE="nature">
    <NAME>node8</NAME>
    <OUTCOME>state0</OUTCOME>
    <OUTCOME>state1</OUTCOME>
    <OUTCOME>state2</OUTCOME>
    <OUTCOME>state3</OUTCOME>
    <PROPERTY>position = (405, 15)</PROPERTY>
</VARIABLE>
<!-- Variables -->
<VARIABLE TYPE="nature">
    <NAME>node9</NAME>
    <OUTCOME>state0</OUTCOME>
    <OUTCOME>state1</OUTCOME>
    <PROPERTY>position = (525, 29)</PROPERTY>
</VARIABLE>
<!-- Probability Distributions -->
 <DEFINITION>
      <FOR>node0</FOR>
     <TABLE>0.5922 0.0424 0.2462 0.1192 </TABLE>
 </DEFINITION>
 <DEFINITION>
      <FOR>node1</FOR>
      <GIVEN>node6</GIVEN>
     <TABLE>0.898 0.102 0.289 0.711 0.9969 0.0031 0.2228 0.7772 </TABLE>
 </DEFINITION>
 <DEFINITION>
      <FOR>node2</FOR>
     <TABLE>0.1647 0.0518 0.7814 0.0021 </TABLE>
 </DEFINITION>
 <DEFINITION>
      <FOR>node3</FOR>
      <GIVEN>node0</GIVEN>
     <TABLE>0.002 0.998 0.1599 0.8401 0.3561 0.6439 0.9326 0.0674 </TABLE>
 </DEFINITION>
 <DEFINITION>
      <FOR>node4</FOR>
      <GIVEN>node2</GIVEN>
      <GIVEN>node6</GIVEN>
      <GIVEN>node7</GIVEN>
      <GIVEN>node5</GIVEN>
     <TABLE>0.2995 0.1092 0.3601 0.2312 0.5968 0.3061 0.0172 0.0799 0.0978 0.1424 0.6695 0.0903 0.346 0.0262 0.4166 0.2112 0.3086 0.1238 0.2009 0.3667 0.1514 0.1855 0.4239 0.2392 0.1358 0.2688 0.1773 0.4181 3.0E-4 0.4605 0.472 0.0672 0.0341 0.1505 0.5444 0.271 0.1986 0.5531 0.0219 0.2264 0.2731 0.3632 0.2826 0.0811 0.3666 0.0626 0.0502 0.5206 0.1376 0.0812 0.5599 0.2213 0.093 0.2139 0.0081 0.685 0.8597 0.0151 0.0915 0.0337 0.0266 0.2166 0.3416 0.4152 0.4465 0.3254 0.1334 0.0947 0.3408 0.3298 0.3077 0.0217 0.49 0.3685 0.0959 0.0456 0.0751 0.282 0.6415 0.0014 0.5899 0.0276 0.0762 0.3063 0.2866 0.0603 0.0495 0.6036 0.1067 0.3203 0.0969 0.4761 0.5413 0.12 0.0955 0.2432 0.025 0.4749 0.259 0.2411 0.149 0.0957 0.1442 0.6111 0.5385 0.1517 0.283 0.0268 0.7311 0.0819 0.1469 0.0401 0.3247 0.016 0.3281 0.3312 0.0229 0.1313 0.7438 0.102 0.571 0.1456 0.1865 0.0969 0.2212 0.1883 0.2257 0.3648 0.0106 0.1845 0.4054 0.3995 0.026 0.8203 0.012 0.1417 0.1138 0.3407 0.384 0.1615 0.1161 0.3285 0.2129 0.3425 0.0134 0.2845 0.347 0.3551 0.1363 0.2582 0.1403 0.4652 0.2215 0.5806 0.0104 0.1875 0.642 0.036 0.1007 0.2213 0.4145 0.1855 0.1996 0.2004 0.2799 0.1243 0.3835 0.2123 0.0046 0.3552 0.2142 0.426 0.1454 0.1429 0.3153 0.3964 0.3042 0.344 0.0987 0.2531 5.0E-4 0.0713 0.6204 0.3078 0.2527 0.3388 0.3597 0.0488 0.0477 0.7144 0.1278 0.1101 0.3915 0.1243 0.3879 0.0963 0.1591 0.3867 0.0135 0.4407 0.0437 0.4105 0.2854 0.2604 0.7761 0.0103 0.2122 0.0014 0.6478 0.3157 0.0095 0.027 0.0477 0.0333 0.3701 0.5489 0.1986 0.3689 0.3879 0.0446 0.1982 0.0532 0.3129 0.4357 0.0391 0.6655 0.1908 0.1046 0.4824 0.3265 0.0025 0.1886 0.0146 0.0986 0.0465 0.8403 0.5598 0.1542 0.0177 0.2683 0.0352 0.8035 0.0369 0.1244 0.1024 0.0539 0.8294 0.0143 0.0826 0.1877 0.6581 0.0716 0.485 0.4422 0.05 0.0228 0.0737 0.2609 0.4037 0.2617 0.0473 0.5213 0.1094 0.322 0.2194 0.2683 0.3669 0.1454 0.1996 0.2781 0.4843 0.038 0.4945 0.1055 0.1628 0.2372 0.1671 0.5382 0.0671 0.2276 0.1303 0.6821 0.0559 0.1317 0.3694 0.1028 0.4964 0.0314 0.2276 0.5059 0.1389 0.1276 0.2469 0.1961 0.2562 0.3008 0.2396 0.0496 0.5022 0.2086 0.2694 0.143 0.088 0.4996 0.1341 0.3836 0.0342 0.4481 0.1532 0.3351 0.0848 0.4269 0.0352 0.396 0.1807 0.3881 0.0488 0.1091 0.1025 0.7396 0.4514 0.3277 0.0083 0.2126 0.0409 0.3755 0.2002 0.3834 0.1226 0.0445 0.3729 0.46 0.4613 0.3347 0.1197 0.0843 0.1064 0.0856 0.502 0.306 0.1718 0.4784 0.3371 0.0127 0.3563 0.1014 0.1765 0.3658 0.1594 0.272 0.4746 0.094 0.3515 0.3581 0.137 0.1534 0.0011 0.0545 0.8161 0.1283 0.0779 0.0554 0.8288 0.0379 0.1242 0.6338 0.219 0.023 0.4614 0.1535 0.0519 0.3332 0.3546 0.0 0.1969 0.4485 0.5142 0.2016 0.2249 0.0593 0.0633 0.3958 0.3221 0.2188 0.116 0.2492 0.3945 0.2403 0.3907 0.0362 0.555 0.0181 0.2986 0.1771 0.0637 0.4606 0.1453 0.2067 0.2009 0.4471 0.2512 0.3363 0.1025 0.31 0.3964 0.157 0.167 0.2796 0.4125 0.0456 0.4861 0.0558 0.1159 0.2482 0.4435 0.1924 0.1051 0.4921 0.3293 0.0735 0.445 0.1949 0.0682 0.2919 0.0619 0.3487 0.147 0.4424 0.1837 0.0903 0.479 0.247 0.0919 0.5084 0.3218 0.0779 0.2895 0.1351 0.574 0.0014 0.1476 0.7623 0.0027 0.0874 0.0162 0.1918 0.2599 0.5321 0.0311 0.6821 0.0471 0.2397 0.6512 0.1936 0.0953 0.0599 0.6935 0.1073 0.1286 0.0706 0.162 0.0973 0.2104 0.5303 0.08 0.5901 0.0698 0.2601 0.6624 0.0047 0.1211 0.2118 0.005 0.0258 0.6192 0.35 0.6215 0.0883 0.0893 0.2009 0.4328 0.3434 0.1501 0.0737 0.1479 0.1411 0.3085 0.4025 0.5467 0.3705 0.0722 0.0106 0.0532 0.3134 0.3067 0.3267 0.2085 0.1837 0.1449 0.4629 0.0147 0.1635 0.0579 0.7639 0.0547 0.3785 0.0089 0.5579 0.0146 0.3039 0.2726 0.4089 0.5946 0.1173 0.1931 0.095 0.7998 0.0139 0.0857 0.1006 0.0759 0.1729 0.5327 0.2185 0.3482 0.234 0.2721 0.1457 0.2622 0.4169 0.2338 0.0871 0.066 0.2451 0.3004 0.3885 0.2249 0.0639 0.3173 0.3939 0.2571 0.1062 0.4908 0.1459 0.1377 0.4157 0.4351 0.0115 0.2173 0.1172 0.3481 0.3174 0.0091 0.4134 0.1037 0.4738 0.743 0.0858 0.0339 0.1373 0.138 0.7387 0.0182 0.1051 0.3788 0.1626 0.0635 0.3951 0.15 0.4724 0.0679 0.3097 0.1657 0.0785 0.477 0.2788 0.4342 0.1931 0.0527 0.32 0.1026 0.08 0.6907 0.1267 0.7302 0.072 0.1238 0.074 0.183 0.1422 0.2613 0.4135 0.0074 0.6623 0.1104 0.2199 0.1563 0.2864 0.2269 0.3304 0.6632 0.1213 0.1181 0.0974 0.2276 0.1388 0.185 0.4486 0.2963 0.1565 0.0397 0.5075 0.4921 0.0599 0.0451 0.4029 0.1094 0.3494 0.0382 0.503 0.1647 0.3731 0.2048 0.2574 0.367 0.2006 0.2821 0.1503 0.1102 0.2619 0.0059 0.622 0.2409 0.3493 0.2349 0.1749 0.4837 0.1754 0.0255 0.3154 0.6177 0.0155 2.0E-4 0.3666 0.2456 0.4603 0.2277 0.0664 0.5147 0.0554 0.1283 0.3016 0.1138 0.1429 0.3228 0.4205 0.0454 0.6363 0.0495 0.2688 0.2755 0.3847 0.2809 0.0589 0.3458 0.0783 0.1904 0.3855 0.1344 0.6149 0.0143 0.2364 0.0252 0.1246 0.6476 0.2026 0.0055 0.3627 0.4577 0.1741 0.1634 0.4451 0.0933 0.2982 0.132 0.2265 0.2112 0.4303 0.0239 0.5074 0.433 0.0357 0.4334 0.3254 0.1509 0.0903 0.4974 0.0267 0.2964 0.1795 0.0189 0.2202 0.4333 0.3276 0.1387 0.2526 0.4004 0.2083 0.5404 0.0284 0.2958 0.1354 0.4078 0.0792 0.288 0.225 0.0013 0.4281 0.4774 0.0932 0.0777 0.1996 0.363 0.3597 0.0189 0.1804 0.2854 0.5153 0.2029 0.1613 0.1017 0.5341 0.0078 0.5347 0.3538 0.1037 0.1412 0.1519 0.0204 0.6865 0.3536 0.2758 0.2131 0.1575 0.5124 0.0235 0.1005 0.3636 0.3852 0.1062 0.4634 0.0452 0.1192 0.1553 0.1659 0.5596 0.5425 0.1339 0.1018 0.2218 0.5175 0.0796 0.1096 0.2933 0.0223 0.3099 0.474 0.1938 </TABLE>
 </DEFINITION>
 <DEFINITION>
      <FOR>node5</FOR>
      <GIVEN>node8</GIVEN>
      <GIVEN>node9</GIVEN>
     <TABLE>0.0761 0.0441 0.5271 0.3527 0.093 0.0488 0.4153 0.4429 0.7091 0.0254 0.0263 0.2392 0.3481 0.4874 0.0786 0.0859 0.0873 0.0536 0.513 0.3461 0.378 0.2304 0.2408 0.1508 0.43 0.1549 0.1302 0.2849 0.4878 0.2991 0.0855 0.1276 </TABLE>
 </DEFINITION>
 <DEFINITION>
      <FOR>node6</FOR>
     <TABLE>0.2061 0.1514 0.3474 0.2951 </TABLE>
 </DEFINITION>
 <DEFINITION>
      <FOR>node7</FOR>
      <GIVEN>node0</GIVEN>
     <TABLE>0.2718 0.1214 0.6068 0.0656 0.8807 0.0537 0.119 0.4226 0.4584 0.3625 0.0121 0.6254 </TABLE>
 </DEFINITION>
 <DEFINITION>
      <FOR>node8</FOR>
     <TABLE>0.0789 0.5139 0.2257 0.1815 </TABLE>
 </DEFINITION>
 <DEFINITION>
      <FOR>node9</FOR>
     <TABLE>0.9592 0.0408 </TABLE>
 </DEFINITION>
</NETWORK>
</BIF>
