<?xml version="1.0" encoding="US-ASCII"?>


<!--
	Bayesian network in XMLBIF v0.3 (BayesNet Interchange Format)
	Produced by JavaBayes (http://www.cs.cmu.edu/~javabayes/
	Number of nodes:8
	Output created Thu Jan 14 12:47:35 CET 2021
-->



<BIF VERSION="0.3">
<NETWORK>
<NAME>InternalNetwork</NAME>
<!-- Variables -->
<VARIABLE TYPE="nature">
    <NAME>node0</NAME>
    <OUTCOME>state0</OUTCOME>
    <OUTCOME>state1</OUTCOME>
    <PROPERTY>position = (45, 30)</PROPERTY>
</VARIABLE>
<!-- Variables -->
<VARIABLE TYPE="nature">
    <NAME>node1</NAME>
    <OUTCOME>state0</OUTCOME>
    <OUTCOME>state1</OUTCOME>
    <PROPERTY>position = (15, 150)</PROPERTY>
</VARIABLE>
<!-- Variables -->
<VARIABLE TYPE="nature">
    <NAME>node2</NAME>
    <OUTCOME>state0</OUTCOME>
    <OUTCOME>state1</OUTCOME>
    <PROPERTY>position = (15, 390)</PROPERTY>
</VARIABLE>
<!-- Variables -->
<VARIABLE TYPE="nature">
    <NAME>node3</NAME>
    <OUTCOME>state0</OUTCOME>
    <OUTCOME>state1</OUTCOME>
    <OUTCOME>state2</OUTCOME>
    <OUTCOME>state3</OUTCOME>
    <OUTCOME>state4</OUTCOME>
    <PROPERTY>position = (165, 44)</PROPERTY>
</VARIABLE>
<!-- Variables -->
<VARIABLE TYPE="nature">
    <NAME>node4</NAME>
    <OUTCOME>state0</OUTCOME>
    <OUTCOME>state1</OUTCOME>
    <PROPERTY>position = (135, 164)</PROPERTY>
</VARIABLE>
<!-- Variables -->
<VARIABLE TYPE="nature">
    <NAME>node5</NAME>
    <OUTCOME>state0</OUTCOME>
    <OUTCOME>state1</OUTCOME>
    <OUTCOME>state2</OUTCOME>
    <PROPERTY>position = (285, 30)</PROPERTY>
</VARIABLE>
<!-- Variables -->
<VARIABLE TYPE="nature">
    <NAME>node6</NAME>
    <OUTCOME>state0</OUTCOME>
    <OUTCOME>state1</OUTCOME>
    <OUTCOME>state2</OUTCOME>
    <OUTCOME>state3</OUTCOME>
    <PROPERTY>position = (44, 270)</PROPERTY>
</VARIABLE>
<!-- Variables -->
<VARIABLE TYPE="nature">
    <NAME>node7</NAME>
    <OUTCOME>state0</OUTCOME>
    <OUTCOME>state1</OUTCOME>
    <OUTCOME>state2</OUTCOME>
    <OUTCOME>state3</OUTCOME>
    <PROPERTY>position = (405, 15)</PROPERTY>
</VARIABLE>
<!-- Probability Distributions -->
 <DEFINITION>
      <FOR>node0</FOR>
     <TABLE>0.118 0.882 </TABLE>
 </DEFINITION>
 <DEFINITION>
      <FOR>node1</FOR>
      <GIVEN>node2</GIVEN>
     <TABLE>0.5504 0.4496 0.6895 0.3105 </TABLE>
 </DEFINITION>
 <DEFINITION>
      <FOR>node2</FOR>
      <GIVEN>node5</GIVEN>
      <GIVEN>node3</GIVEN>
      <GIVEN>node0</GIVEN>
     <TABLE>0.685 0.315 0.5356 0.4644 0.6562 0.3438 0.6994 0.3006 0.6042 0.3958 0.4183 0.5817 0.5451 0.4549 0.8305 0.1695 0.9092 0.0908 0.0551 0.9449 0.7636 0.2364 0.383 0.617 0.5361 0.4639 0.8943 0.1057 0.7796 0.2204 0.7421 0.2579 0.7914 0.2086 0.1973 0.8027 0.7861 0.2139 0.2549 0.7451 0.0661 0.9339 0.1909 0.8091 0.3437 0.6563 0.3647 0.6353 0.3849 0.6151 0.1372 0.8628 0.3385 0.6615 0.2988 0.7012 0.7392 0.2608 0.8635 0.1365 </TABLE>
 </DEFINITION>
 <DEFINITION>
      <FOR>node3</FOR>
     <TABLE>0.1952 0.0036 0.4929 0.2007 0.1076 </TABLE>
 </DEFINITION>
 <DEFINITION>
      <FOR>node4</FOR>
      <GIVEN>node7</GIVEN>
     <TABLE>0.9638 0.0362 0.8668 0.1332 0.384 0.616 0.6299 0.3701 </TABLE>
 </DEFINITION>
 <DEFINITION>
      <FOR>node5</FOR>
     <TABLE>0.9071 0.0426 0.0503 </TABLE>
 </DEFINITION>
 <DEFINITION>
      <FOR>node6</FOR>
      <GIVEN>node3</GIVEN>
      <GIVEN>node7</GIVEN>
     <TABLE>0.3852 0.1716 0.0646 0.3786 0.6299 0.1891 0.0623 0.1187 0.1564 0.5044 0.0383 0.3009 0.4566 0.3414 0.0012 0.2008 0.078 0.2545 0.3907 0.2768 0.2614 0.4557 0.2532 0.0297 0.4511 0.2707 0.0376 0.2406 0.0206 0.3094 0.0097 0.6603 0.4093 0.4524 0.0561 0.0822 0.2002 0.1473 0.1323 0.5202 0.4253 0.1722 0.0945 0.308 0.1533 0.3304 0.1537 0.3626 0.0681 0.3617 0.3016 0.2686 0.1981 0.249 0.3908 0.1621 0.2447 0.4977 0.125 0.1326 0.3191 0.1613 0.4469 0.0727 0.0553 0.3948 0.3302 0.2197 0.2422 0.3523 0.3074 0.0981 0.2065 0.5208 0.2544 0.0183 0.2203 0.345 0.4019 0.0328 </TABLE>
 </DEFINITION>
 <DEFINITION>
      <FOR>node7</FOR>
     <TABLE>0.1271 0.4745 0.2401 0.1583 </TABLE>
 </DEFINITION>
</NETWORK>
</BIF>
