<?xml version="1.0" encoding="US-ASCII"?>


<!--
	Bayesian network in XMLBIF v0.3 (BayesNet Interchange Format)
	Produced by JavaBayes (http://www.cs.cmu.edu/~javabayes/
	Number of nodes:8
	Output created Fri Feb 12 19:04:32 CET 2021
-->



<BIF VERSION="0.3">
<NETWORK>
<NAME>InternalNetwork</NAME>
<!-- Variables -->
<VARIABLE TYPE="nature">
    <NAME>node0</NAME>
    <OUTCOME>state0</OUTCOME>
    <OUTCOME>state1</OUTCOME>
    <OUTCOME>state2</OUTCOME>
    <PROPERTY>position = (15, 150)</PROPERTY>
</VARIABLE>
<!-- Variables -->
<VARIABLE TYPE="nature">
    <NAME>node1</NAME>
    <OUTCOME>state0</OUTCOME>
    <OUTCOME>state1</OUTCOME>
    <OUTCOME>state2</OUTCOME>
    <OUTCOME>state3</OUTCOME>
    <PROPERTY>position = (45, 30)</PROPERTY>
</VARIABLE>
<!-- Variables -->
<VARIABLE TYPE="nature">
    <NAME>node2</NAME>
    <OUTCOME>state0</OUTCOME>
    <OUTCOME>state1</OUTCOME>
    <PROPERTY>position = (15, 390)</PROPERTY>
</VARIABLE>
<!-- Variables -->
<VARIABLE TYPE="nature">
    <NAME>node3</NAME>
    <OUTCOME>state0</OUTCOME>
    <OUTCOME>state1</OUTCOME>
    <OUTCOME>state2</OUTCOME>
    <PROPERTY>position = (165, 44)</PROPERTY>
</VARIABLE>
<!-- Variables -->
<VARIABLE TYPE="nature">
    <NAME>node4</NAME>
    <OUTCOME>state0</OUTCOME>
    <OUTCOME>state1</OUTCOME>
    <OUTCOME>state2</OUTCOME>
    <OUTCOME>state3</OUTCOME>
    <PROPERTY>position = (135, 164)</PROPERTY>
</VARIABLE>
<!-- Variables -->
<VARIABLE TYPE="nature">
    <NAME>node5</NAME>
    <OUTCOME>state0</OUTCOME>
    <OUTCOME>state1</OUTCOME>
    <OUTCOME>state2</OUTCOME>
    <OUTCOME>state3</OUTCOME>
    <PROPERTY>position = (285, 30)</PROPERTY>
</VARIABLE>
<!-- Variables -->
<VARIABLE TYPE="nature">
    <NAME>node6</NAME>
    <OUTCOME>state0</OUTCOME>
    <OUTCOME>state1</OUTCOME>
    <OUTCOME>state2</OUTCOME>
    <OUTCOME>state3</OUTCOME>
    <PROPERTY>position = (44, 270)</PROPERTY>
</VARIABLE>
<!-- Variables -->
<VARIABLE TYPE="nature">
    <NAME>node7</NAME>
    <OUTCOME>state0</OUTCOME>
    <OUTCOME>state1</OUTCOME>
    <OUTCOME>state2</OUTCOME>
    <PROPERTY>position = (405, 15)</PROPERTY>
</VARIABLE>
<!-- Probability Distributions -->
 <DEFINITION>
      <FOR>node0</FOR>
      <GIVEN>node5</GIVEN>
     <TABLE>0.6918 0.18 0.1282 0.1619 0.5454 0.2927 0.6114 0.1922 0.1964 0.5795 0.0555 0.365 </TABLE>
 </DEFINITION>
 <DEFINITION>
      <FOR>node1</FOR>
     <TABLE>0.3197 0.5355 0.0226 0.1222 </TABLE>
 </DEFINITION>
 <DEFINITION>
      <FOR>node2</FOR>
      <GIVEN>node3</GIVEN>
      <GIVEN>node7</GIVEN>
      <GIVEN>node6</GIVEN>
     <TABLE>0.2669 0.7331 0.704 0.296 0.0604 0.9396 0.086 0.914 0.8654 0.1346 0.3477 0.6523 0.7249 0.2751 0.6661 0.3339 0.5039 0.4961 0.4679 0.5321 0.2451 0.7549 0.4098 0.5902 0.6823 0.3177 0.4242 0.5758 0.3317 0.6683 0.4731 0.5269 0.3737 0.6263 0.6286 0.3714 0.3933 0.6067 0.5142 0.4858 0.7145 0.2855 0.4985 0.5015 0.0648 0.9352 0.4358 0.5642 0.3772 0.6228 0.9745 0.0255 0.3503 0.6497 0.0609 0.9391 0.3429 0.6571 0.8692 0.1308 0.3916 0.6084 0.3198 0.6802 0.1091 0.8909 0.9592 0.0408 0.299 0.701 0.6945 0.3055 </TABLE>
 </DEFINITION>
 <DEFINITION>
      <FOR>node3</FOR>
     <TABLE>0.0027 0.7738 0.2235 </TABLE>
 </DEFINITION>
 <DEFINITION>
      <FOR>node4</FOR>
      <GIVEN>node1</GIVEN>
     <TABLE>0.241 0.1706 0.3083 0.2801 0.3616 0.1478 0.4234 0.0672 0.0154 0.5233 0.2886 0.1727 0.1063 0.0212 0.0911 0.7814 </TABLE>
 </DEFINITION>
 <DEFINITION>
      <FOR>node5</FOR>
     <TABLE>0.182 0.0785 0.0133 0.7262 </TABLE>
 </DEFINITION>
 <DEFINITION>
      <FOR>node6</FOR>
      <GIVEN>node1</GIVEN>
      <GIVEN>node0</GIVEN>
     <TABLE>0.3269 0.4689 0.0692 0.135 0.0765 0.5363 0.2691 0.1181 0.5285 0.1278 0.1429 0.2008 0.0105 0.2436 0.6984 0.0475 0.5011 0.3304 0.1626 0.0059 0.2781 0.0563 0.3136 0.352 0.3994 0.4823 0.0834 0.0349 0.3111 0.0761 0.4615 0.1513 0.225 0.3389 0.1568 0.2793 0.3617 0.1401 0.1409 0.3573 0.3864 0.0052 0.5037 0.1047 0.2604 0.5363 0.1738 0.0295 </TABLE>
 </DEFINITION>
 <DEFINITION>
      <FOR>node7</FOR>
     <TABLE>0.2261 0.2777 0.4962 </TABLE>
 </DEFINITION>
</NETWORK>
</BIF>
