<?xml version="1.0" encoding="US-ASCII"?>


<!--
	Bayesian network in XMLBIF v0.3 (BayesNet Interchange Format)
	Produced by JavaBayes (http://www.cs.cmu.edu/~javabayes/
	Number of nodes:8
	Output created Tue Feb 02 20:35:59 CET 2021
-->



<BIF VERSION="0.3">
<NETWORK>
<NAME>InternalNetwork</NAME>
<!-- Variables -->
<VARIABLE TYPE="nature">
    <NAME>node0</NAME>
    <OUTCOME>state0</OUTCOME>
    <OUTCOME>state1</OUTCOME>
    <OUTCOME>state2</OUTCOME>
    <OUTCOME>state3</OUTCOME>
    <PROPERTY>position = (15, 150)</PROPERTY>
</VARIABLE>
<!-- Variables -->
<VARIABLE TYPE="nature">
    <NAME>node1</NAME>
    <OUTCOME>state0</OUTCOME>
    <OUTCOME>state1</OUTCOME>
    <OUTCOME>state2</OUTCOME>
    <OUTCOME>state3</OUTCOME>
    <PROPERTY>position = (45, 30)</PROPERTY>
</VARIABLE>
<!-- Variables -->
<VARIABLE TYPE="nature">
    <NAME>node2</NAME>
    <OUTCOME>state0</OUTCOME>
    <OUTCOME>state1</OUTCOME>
    <PROPERTY>position = (44, 270)</PROPERTY>
</VARIABLE>
<!-- Variables -->
<VARIABLE TYPE="nature">
    <NAME>node3</NAME>
    <OUTCOME>state0</OUTCOME>
    <OUTCOME>state1</OUTCOME>
    <PROPERTY>position = (165, 44)</PROPERTY>
</VARIABLE>
<!-- Variables -->
<VARIABLE TYPE="nature">
    <NAME>node4</NAME>
    <OUTCOME>state0</OUTCOME>
    <OUTCOME>state1</OUTCOME>
    <PROPERTY>position = (164, 284)</PROPERTY>
</VARIABLE>
<!-- Variables -->
<VARIABLE TYPE="nature">
    <NAME>node5</NAME>
    <OUTCOME>state0</OUTCOME>
    <OUTCOME>state1</OUTCOME>
    <OUTCOME>state2</OUTCOME>
    <PROPERTY>position = (284, 270)</PROPERTY>
</VARIABLE>
<!-- Variables -->
<VARIABLE TYPE="nature">
    <NAME>node6</NAME>
    <OUTCOME>state0</OUTCOME>
    <OUTCOME>state1</OUTCOME>
    <OUTCOME>state2</OUTCOME>
    <OUTCOME>state3</OUTCOME>
    <PROPERTY>position = (285, 30)</PROPERTY>
</VARIABLE>
<!-- Variables -->
<VARIABLE TYPE="nature">
    <NAME>node7</NAME>
    <OUTCOME>state0</OUTCOME>
    <OUTCOME>state1</OUTCOME>
    <OUTCOME>state2</OUTCOME>
    <OUTCOME>state3</OUTCOME>
    <PROPERTY>position = (405, 15)</PROPERTY>
</VARIABLE>
<!-- Probability Distributions -->
 <DEFINITION>
      <FOR>node0</FOR>
      <GIVEN>node6</GIVEN>
     <TABLE>0.0448 0.6286 0.0622 0.2644 0.3916 0.3016 0.2881 0.0187 0.0212 0.2514 0.068 0.6594 0.1762 0.2714 0.4632 0.0892 </TABLE>
 </DEFINITION>
 <DEFINITION>
      <FOR>node1</FOR>
     <TABLE>0.2914 0.1515 0.0205 0.5366 </TABLE>
 </DEFINITION>
 <DEFINITION>
      <FOR>node2</FOR>
      <GIVEN>node1</GIVEN>
      <GIVEN>node0</GIVEN>
     <TABLE>0.0293 0.9707 0.5545 0.4455 0.7721 0.2279 0.5458 0.4542 0.0719 0.9281 0.1618 0.8382 0.3311 0.6689 0.214 0.786 0.5959 0.4041 0.8583 0.1417 0.0779 0.9221 0.2118 0.7882 0.8317 0.1683 0.3808 0.6192 0.7731 0.2269 0.3304 0.6696 </TABLE>
 </DEFINITION>
 <DEFINITION>
      <FOR>node3</FOR>
     <TABLE>0.6341 0.3659 </TABLE>
 </DEFINITION>
 <DEFINITION>
      <FOR>node4</FOR>
      <GIVEN>node6</GIVEN>
      <GIVEN>node3</GIVEN>
     <TABLE>0.5928 0.4072 0.3873 0.6127 0.8525 0.1475 0.6331 0.3669 0.2014 0.7986 0.251 0.749 0.9344 0.0656 0.8435 0.1565 </TABLE>
 </DEFINITION>
 <DEFINITION>
      <FOR>node5</FOR>
      <GIVEN>node0</GIVEN>
      <GIVEN>node7</GIVEN>
     <TABLE>0.1672 0.1885 0.6443 0.2234 0.4445 0.3321 0.8244 0.1604 0.0152 0.0133 0.1504 0.8363 0.4765 0.3773 0.1462 0.1258 0.3821 0.4921 0.2004 0.4967 0.3029 0.2093 0.3083 0.4824 0.3228 0.4505 0.2267 0.7685 0.0277 0.2038 0.6786 0.065 0.2564 0.2612 0.586 0.1528 0.2156 0.5018 0.2826 0.4263 0.3854 0.1883 0.1554 0.0507 0.7939 0.0574 0.558 0.3846 </TABLE>
 </DEFINITION>
 <DEFINITION>
      <FOR>node6</FOR>
     <TABLE>0.1196 0.0248 0.4194 0.4362 </TABLE>
 </DEFINITION>
 <DEFINITION>
      <FOR>node7</FOR>
     <TABLE>0.133 0.6917 0.1108 0.0645 </TABLE>
 </DEFINITION>
</NETWORK>
</BIF>
