<?xml version="1.0" encoding="US-ASCII"?>


<!--
	Bayesian network in XMLBIF v0.3 (BayesNet Interchange Format)
	Produced by JavaBayes (http://www.cs.cmu.edu/~javabayes/
	Number of nodes:10
	Output created Thu Jan 14 12:47:35 CET 2021
-->



<BIF VERSION="0.3">
<NETWORK>
<NAME>InternalNetwork</NAME>
<!-- Variables -->
<VARIABLE TYPE="nature">
    <NAME>node0</NAME>
    <OUTCOME>state0</OUTCOME>
    <OUTCOME>state1</OUTCOME>
    <OUTCOME>state2</OUTCOME>
    <OUTCOME>state3</OUTCOME>
    <PROPERTY>position = (44, 270)</PROPERTY>
</VARIABLE>
<!-- Variables -->
<VARIABLE TYPE="nature">
    <NAME>node1</NAME>
    <OUTCOME>state0</OUTCOME>
    <OUTCOME>state1</OUTCOME>
    <OUTCOME>state2</OUTCOME>
    <PROPERTY>position = (15, 150)</PROPERTY>
</VARIABLE>
<!-- Variables -->
<VARIABLE TYPE="nature">
    <NAME>node2</NAME>
    <OUTCOME>state0</OUTCOME>
    <OUTCOME>state1</OUTCOME>
    <PROPERTY>position = (135, 164)</PROPERTY>
</VARIABLE>
<!-- Variables -->
<VARIABLE TYPE="nature">
    <NAME>node3</NAME>
    <OUTCOME>state0</OUTCOME>
    <OUTCOME>state1</OUTCOME>
    <OUTCOME>state2</OUTCOME>
    <PROPERTY>position = (45, 30)</PROPERTY>
</VARIABLE>
<!-- Variables -->
<VARIABLE TYPE="nature">
    <NAME>node4</NAME>
    <OUTCOME>state0</OUTCOME>
    <OUTCOME>state1</OUTCOME>
    <OUTCOME>state2</OUTCOME>
    <OUTCOME>state3</OUTCOME>
    <PROPERTY>position = (255, 150)</PROPERTY>
</VARIABLE>
<!-- Variables -->
<VARIABLE TYPE="nature">
    <NAME>node5</NAME>
    <OUTCOME>state0</OUTCOME>
    <OUTCOME>state1</OUTCOME>
    <OUTCOME>state2</OUTCOME>
    <PROPERTY>position = (375, 135)</PROPERTY>
</VARIABLE>
<!-- Variables -->
<VARIABLE TYPE="nature">
    <NAME>node6</NAME>
    <OUTCOME>state0</OUTCOME>
    <OUTCOME>state1</OUTCOME>
    <OUTCOME>state2</OUTCOME>
    <PROPERTY>position = (495, 149)</PROPERTY>
</VARIABLE>
<!-- Variables -->
<VARIABLE TYPE="nature">
    <NAME>node7</NAME>
    <OUTCOME>state0</OUTCOME>
    <OUTCOME>state1</OUTCOME>
    <OUTCOME>state2</OUTCOME>
    <OUTCOME>state3</OUTCOME>
    <PROPERTY>position = (165, 44)</PROPERTY>
</VARIABLE>
<!-- Variables -->
<VARIABLE TYPE="nature">
    <NAME>node8</NAME>
    <OUTCOME>state0</OUTCOME>
    <OUTCOME>state1</OUTCOME>
    <OUTCOME>state2</OUTCOME>
    <OUTCOME>state3</OUTCOME>
    <PROPERTY>position = (285, 30)</PROPERTY>
</VARIABLE>
<!-- Variables -->
<VARIABLE TYPE="nature">
    <NAME>node9</NAME>
    <OUTCOME>state0</OUTCOME>
    <OUTCOME>state1</OUTCOME>
    <OUTCOME>state2</OUTCOME>
    <OUTCOME>state3</OUTCOME>
    <PROPERTY>position = (164, 284)</PROPERTY>
</VARIABLE>
<!-- Probability Distributions -->
 <DEFINITION>
      <FOR>node0</FOR>
      <GIVEN>node1</GIVEN>
      <GIVEN>node9</GIVEN>
     <TABLE>0.189 0.4061 0.2069 0.198 0.3173 0.1132 0.0892 0.4803 0.1702 0.1005 0.0442 0.6851 0.0498 0.6741 0.0882 0.1879 0.0559 0.3418 0.1159 0.4864 0.7634 0.1604 0.0702 0.006 0.2241 0.1144 0.1036 0.5579 0.1409 0.7573 0.0825 0.0193 0.0643 0.1115 0.1113 0.7129 0.6358 0.0379 0.2408 0.0855 0.378 0.2984 0.2244 0.0992 0.5893 0.1367 0.0706 0.2034 </TABLE>
 </DEFINITION>
 <DEFINITION>
      <FOR>node1</FOR>
      <GIVEN>node4</GIVEN>
     <TABLE>0.4832 0.4253 0.0915 0.3672 0.5388 0.094 0.2399 0.6 0.1601 0.1661 0.661 0.1729 </TABLE>
 </DEFINITION>
 <DEFINITION>
      <FOR>node2</FOR>
      <GIVEN>node7</GIVEN>
     <TABLE>0.8603 0.1397 0.6117 0.3883 0.8026 0.1974 0.5528 0.4472 </TABLE>
 </DEFINITION>
 <DEFINITION>
      <FOR>node3</FOR>
     <TABLE>0.9309 0.0089 0.0602 </TABLE>
 </DEFINITION>
 <DEFINITION>
      <FOR>node4</FOR>
      <GIVEN>node8</GIVEN>
     <TABLE>0.4654 0.3472 0.1796 0.0078 0.1399 0.1637 0.133 0.5634 0.3083 0.404 0.2363 0.0514 0.3139 0.1256 0.3308 0.2297 </TABLE>
 </DEFINITION>
 <DEFINITION>
      <FOR>node5</FOR>
      <GIVEN>node1</GIVEN>
     <TABLE>0.4121 0.1162 0.4717 0.6927 0.0576 0.2497 0.2553 0.6567 0.088 </TABLE>
 </DEFINITION>
 <DEFINITION>
      <FOR>node6</FOR>
      <GIVEN>node3</GIVEN>
     <TABLE>0.1084 0.4797 0.4119 0.1305 0.6314 0.2381 0.1498 0.288 0.5622 </TABLE>
 </DEFINITION>
 <DEFINITION>
      <FOR>node7</FOR>
     <TABLE>0.0545 0.0798 0.5318 0.3339 </TABLE>
 </DEFINITION>
 <DEFINITION>
      <FOR>node8</FOR>
     <TABLE>0.1654 0.161 0.5045 0.1691 </TABLE>
 </DEFINITION>
 <DEFINITION>
      <FOR>node9</FOR>
      <GIVEN>node2</GIVEN>
      <GIVEN>node6</GIVEN>
     <TABLE>0.3192 0.2471 0.3393 0.0944 0.1967 0.3575 0.3928 0.053 0.1433 0.4612 0.382 0.0135 0.3712 0.1124 0.3041 0.2123 0.3833 0.0462 0.0774 0.4931 0.4704 0.4378 0.0316 0.0602 </TABLE>
 </DEFINITION>
</NETWORK>
</BIF>
