<?xml version="1.0" encoding="US-ASCII"?>


<!--
	Bayesian network in XMLBIF v0.3 (BayesNet Interchange Format)
	Produced by JavaBayes (http://www.cs.cmu.edu/~javabayes/
	Number of nodes:8
	Output created Thu Jan 14 12:47:35 CET 2021
-->



<BIF VERSION="0.3">
<NETWORK>
<NAME>InternalNetwork</NAME>
<!-- Variables -->
<VARIABLE TYPE="nature">
    <NAME>node0</NAME>
    <OUTCOME>state0</OUTCOME>
    <OUTCOME>state1</OUTCOME>
    <OUTCOME>state2</OUTCOME>
    <OUTCOME>state3</OUTCOME>
    <PROPERTY>position = (15, 150)</PROPERTY>
</VARIABLE>
<!-- Variables -->
<VARIABLE TYPE="nature">
    <NAME>node1</NAME>
    <OUTCOME>state0</OUTCOME>
    <OUTCOME>state1</OUTCOME>
    <OUTCOME>state2</OUTCOME>
    <OUTCOME>state3</OUTCOME>
    <PROPERTY>position = (44, 270)</PROPERTY>
</VARIABLE>
<!-- Variables -->
<VARIABLE TYPE="nature">
    <NAME>node2</NAME>
    <OUTCOME>state0</OUTCOME>
    <OUTCOME>state1</OUTCOME>
    <PROPERTY>position = (45, 30)</PROPERTY>
</VARIABLE>
<!-- Variables -->
<VARIABLE TYPE="nature">
    <NAME>node3</NAME>
    <OUTCOME>state0</OUTCOME>
    <OUTCOME>state1</OUTCOME>
    <OUTCOME>state2</OUTCOME>
    <PROPERTY>position = (165, 44)</PROPERTY>
</VARIABLE>
<!-- Variables -->
<VARIABLE TYPE="nature">
    <NAME>node4</NAME>
    <OUTCOME>state0</OUTCOME>
    <OUTCOME>state1</OUTCOME>
    <OUTCOME>state2</OUTCOME>
    <OUTCOME>state3</OUTCOME>
    <PROPERTY>position = (135, 164)</PROPERTY>
</VARIABLE>
<!-- Variables -->
<VARIABLE TYPE="nature">
    <NAME>node5</NAME>
    <OUTCOME>state0</OUTCOME>
    <OUTCOME>state1</OUTCOME>
    <OUTCOME>state2</OUTCOME>
    <PROPERTY>position = (255, 150)</PROPERTY>
</VARIABLE>
<!-- Variables -->
<VARIABLE TYPE="nature">
    <NAME>node6</NAME>
    <OUTCOME>state0</OUTCOME>
    <OUTCOME>state1</OUTCOME>
    <OUTCOME>state2</OUTCOME>
    <OUTCOME>state3</OUTCOME>
    <OUTCOME>state4</OUTCOME>
    <PROPERTY>position = (375, 135)</PROPERTY>
</VARIABLE>
<!-- Variables -->
<VARIABLE TYPE="nature">
    <NAME>node7</NAME>
    <OUTCOME>state0</OUTCOME>
    <OUTCOME>state1</OUTCOME>
    <OUTCOME>state2</OUTCOME>
    <PROPERTY>position = (495, 149)</PROPERTY>
</VARIABLE>
<!-- Probability Distributions -->
 <DEFINITION>
      <FOR>node0</FOR>
      <GIVEN>node1</GIVEN>
     <TABLE>0.1826 0.331 0.4158 0.0706 0.0836 0.4428 0.3698 0.1038 0.842 0.0252 0.13 0.0028 0.1208 0.0118 0.2611 0.6063 </TABLE>
 </DEFINITION>
 <DEFINITION>
      <FOR>node1</FOR>
      <GIVEN>node6</GIVEN>
      <GIVEN>node3</GIVEN>
     <TABLE>0.0469 0.3904 0.0487 0.514 0.6152 0.0732 0.3012 0.0104 0.0698 0.4928 0.3363 0.1011 0.0766 0.2057 0.1561 0.5616 0.2952 0.3748 0.2552 0.0748 0.0902 0.7286 0.163 0.0182 0.0901 0.2209 0.3537 0.3353 0.0214 0.4841 0.249 0.2455 0.1841 0.0407 0.0068 0.7684 0.0881 0.0727 0.702 0.1372 0.1214 0.3833 0.0265 0.4688 0.3023 0.1836 0.0888 0.4253 0.2693 0.055 0.4625 0.2132 0.7576 0.1341 0.0277 0.0806 0.4445 0.158 0.121 0.2765 </TABLE>
 </DEFINITION>
 <DEFINITION>
      <FOR>node2</FOR>
     <TABLE>0.9412 0.0588 </TABLE>
 </DEFINITION>
 <DEFINITION>
      <FOR>node3</FOR>
     <TABLE>0.4314 0.4672 0.1014 </TABLE>
 </DEFINITION>
 <DEFINITION>
      <FOR>node4</FOR>
      <GIVEN>node6</GIVEN>
     <TABLE>0.4015 0.0866 0.2378 0.2741 0.2479 0.4596 0.2834 0.0091 0.4467 0.2021 0.3345 0.0167 0.1208 0.337 0.0328 0.5094 0.3922 0.0062 0.1485 0.4531 </TABLE>
 </DEFINITION>
 <DEFINITION>
      <FOR>node5</FOR>
      <GIVEN>node4</GIVEN>
     <TABLE>0.2806 0.0563 0.6631 0.2072 0.2823 0.5105 0.2312 0.3604 0.4084 0.3618 0.1039 0.5343 </TABLE>
 </DEFINITION>
 <DEFINITION>
      <FOR>node6</FOR>
      <GIVEN>node2</GIVEN>
     <TABLE>0.3949 0.2211 0.2048 0.0856 0.0936 0.5664 7.0E-4 0.16 0.154 0.1189 </TABLE>
 </DEFINITION>
 <DEFINITION>
      <FOR>node7</FOR>
      <GIVEN>node1</GIVEN>
     <TABLE>0.2931 0.489 0.2179 0.1442 0.5466 0.3092 0.1385 0.4479 0.4136 0.4516 0.0596 0.4888 </TABLE>
 </DEFINITION>
</NETWORK>
</BIF>
