<?xml version="1.0" encoding="US-ASCII"?>


<!--
	Bayesian network in XMLBIF v0.3 (BayesNet Interchange Format)
	Produced by JavaBayes (http://www.cs.cmu.edu/~javabayes/
	Number of nodes:9
	Output created Wed Feb 17 10:47:29 CET 2021
-->



<BIF VERSION="0.3">
<NETWORK>
<NAME>InternalNetwork</NAME>
<!-- Variables -->
<VARIABLE TYPE="nature">
    <NAME>node0</NAME>
    <OUTCOME>state0</OUTCOME>
    <OUTCOME>state1</OUTCOME>
    <OUTCOME>state2</OUTCOME>
    <OUTCOME>state3</OUTCOME>
    <PROPERTY>position = (15, 150)</PROPERTY>
</VARIABLE>
<!-- Variables -->
<VARIABLE TYPE="nature">
    <NAME>node1</NAME>
    <OUTCOME>state0</OUTCOME>
    <OUTCOME>state1</OUTCOME>
    <OUTCOME>state2</OUTCOME>
    <PROPERTY>position = (44, 270)</PROPERTY>
</VARIABLE>
<!-- Variables -->
<VARIABLE TYPE="nature">
    <NAME>node2</NAME>
    <OUTCOME>state0</OUTCOME>
    <OUTCOME>state1</OUTCOME>
    <PROPERTY>position = (135, 164)</PROPERTY>
</VARIABLE>
<!-- Variables -->
<VARIABLE TYPE="nature">
    <NAME>node3</NAME>
    <OUTCOME>state0</OUTCOME>
    <OUTCOME>state1</OUTCOME>
    <OUTCOME>state2</OUTCOME>
    <OUTCOME>state3</OUTCOME>
    <PROPERTY>position = (45, 30)</PROPERTY>
</VARIABLE>
<!-- Variables -->
<VARIABLE TYPE="nature">
    <NAME>node4</NAME>
    <OUTCOME>state0</OUTCOME>
    <OUTCOME>state1</OUTCOME>
    <PROPERTY>position = (165, 44)</PROPERTY>
</VARIABLE>
<!-- Variables -->
<VARIABLE TYPE="nature">
    <NAME>node5</NAME>
    <OUTCOME>state0</OUTCOME>
    <OUTCOME>state1</OUTCOME>
    <OUTCOME>state2</OUTCOME>
    <PROPERTY>position = (164, 284)</PROPERTY>
</VARIABLE>
<!-- Variables -->
<VARIABLE TYPE="nature">
    <NAME>node6</NAME>
    <OUTCOME>state0</OUTCOME>
    <OUTCOME>state1</OUTCOME>
    <OUTCOME>state2</OUTCOME>
    <OUTCOME>state3</OUTCOME>
    <PROPERTY>position = (255, 150)</PROPERTY>
</VARIABLE>
<!-- Variables -->
<VARIABLE TYPE="nature">
    <NAME>node7</NAME>
    <OUTCOME>state0</OUTCOME>
    <OUTCOME>state1</OUTCOME>
    <OUTCOME>state2</OUTCOME>
    <PROPERTY>position = (285, 30)</PROPERTY>
</VARIABLE>
<!-- Variables -->
<VARIABLE TYPE="nature">
    <NAME>node8</NAME>
    <OUTCOME>state0</OUTCOME>
    <OUTCOME>state1</OUTCOME>
    <PROPERTY>position = (375, 135)</PROPERTY>
</VARIABLE>
<!-- Probability Distributions -->
 <DEFINITION>
      <FOR>node0</FOR>
      <GIVEN>node4</GIVEN>
     <TABLE>0.0546 0.24 0.6738 0.0316 0.758 0.142 0.0732 0.0268 </TABLE>
 </DEFINITION>
 <DEFINITION>
      <FOR>node1</FOR>
      <GIVEN>node3</GIVEN>
      <GIVEN>node0</GIVEN>
     <TABLE>0.0591 0.0442 0.8967 0.0034 0.248 0.7486 0.725 0.2375 0.0375 0.3538 0.4103 0.2359 0.7196 0.1012 0.1792 0.2388 0.3044 0.4568 0.2682 0.7218 0.01 0.2982 0.2521 0.4497 0.5186 0.1262 0.3552 0.1575 0.3522 0.4903 0.3816 0.3156 0.3028 0.3784 0.0669 0.5547 0.4828 0.4988 0.0184 0.382 0.5695 0.0485 0.4974 0.3241 0.1785 0.2292 0.6401 0.1307 </TABLE>
 </DEFINITION>
 <DEFINITION>
      <FOR>node2</FOR>
      <GIVEN>node7</GIVEN>
     <TABLE>0.732 0.268 0.7704 0.2296 0.5823 0.4177 </TABLE>
 </DEFINITION>
 <DEFINITION>
      <FOR>node3</FOR>
     <TABLE>0.3012 0.4988 0.0277 0.1723 </TABLE>
 </DEFINITION>
 <DEFINITION>
      <FOR>node4</FOR>
     <TABLE>0.565 0.435 </TABLE>
 </DEFINITION>
 <DEFINITION>
      <FOR>node5</FOR>
      <GIVEN>node6</GIVEN>
      <GIVEN>node0</GIVEN>
     <TABLE>0.1424 0.6257 0.2319 0.8966 0.0094 0.094 0.0853 0.7706 0.1441 0.3382 0.5088 0.153 0.0536 0.6085 0.3379 0.5695 0.3517 0.0788 0.7098 0.0991 0.1911 0.4674 0.0367 0.4959 0.9444 0.0132 0.0424 0.6787 0.0237 0.2976 0.3875 0.1349 0.4776 0.5215 0.1852 0.2933 0.2348 0.3488 0.4164 0.4223 0.4037 0.174 0.3673 0.3286 0.3041 0.4461 0.0054 0.5485 </TABLE>
 </DEFINITION>
 <DEFINITION>
      <FOR>node6</FOR>
      <GIVEN>node2</GIVEN>
     <TABLE>0.514 0.0819 0.3587 0.0454 0.2323 0.5253 0.2355 0.0069 </TABLE>
 </DEFINITION>
 <DEFINITION>
      <FOR>node7</FOR>
     <TABLE>0.0462 0.6031 0.3507 </TABLE>
 </DEFINITION>
 <DEFINITION>
      <FOR>node8</FOR>
      <GIVEN>node6</GIVEN>
     <TABLE>0.814 0.186 0.5913 0.4087 0.0899 0.9101 0.1136 0.8864 </TABLE>
 </DEFINITION>
</NETWORK>
</BIF>
