<?xml version="1.0" encoding="US-ASCII"?>


<!--
	Bayesian network in XMLBIF v0.3 (BayesNet Interchange Format)
	Produced by JavaBayes (http://www.cs.cmu.edu/~javabayes/
	Number of nodes:6
	Output created Thu Jan 14 12:47:34 CET 2021
-->



<BIF VERSION="0.3">
<NETWORK>
<NAME>InternalNetwork</NAME>
<!-- Variables -->
<VARIABLE TYPE="nature">
    <NAME>node0</NAME>
    <OUTCOME>state0</OUTCOME>
    <OUTCOME>state1</OUTCOME>
    <OUTCOME>state2</OUTCOME>
    <PROPERTY>position = (45, 30)</PROPERTY>
</VARIABLE>
<!-- Variables -->
<VARIABLE TYPE="nature">
    <NAME>node1</NAME>
    <OUTCOME>state0</OUTCOME>
    <OUTCOME>state1</OUTCOME>
    <OUTCOME>state2</OUTCOME>
    <PROPERTY>position = (15, 150)</PROPERTY>
</VARIABLE>
<!-- Variables -->
<VARIABLE TYPE="nature">
    <NAME>node2</NAME>
    <OUTCOME>state0</OUTCOME>
    <OUTCOME>state1</OUTCOME>
    <OUTCOME>state2</OUTCOME>
    <PROPERTY>position = (135, 164)</PROPERTY>
</VARIABLE>
<!-- Variables -->
<VARIABLE TYPE="nature">
    <NAME>node3</NAME>
    <OUTCOME>state0</OUTCOME>
    <OUTCOME>state1</OUTCOME>
    <OUTCOME>state2</OUTCOME>
    <PROPERTY>position = (255, 150)</PROPERTY>
</VARIABLE>
<!-- Variables -->
<VARIABLE TYPE="nature">
    <NAME>node4</NAME>
    <OUTCOME>state0</OUTCOME>
    <OUTCOME>state1</OUTCOME>
    <OUTCOME>state2</OUTCOME>
    <PROPERTY>position = (375, 135)</PROPERTY>
</VARIABLE>
<!-- Variables -->
<VARIABLE TYPE="nature">
    <NAME>node5</NAME>
    <OUTCOME>state0</OUTCOME>
    <OUTCOME>state1</OUTCOME>
    <OUTCOME>state2</OUTCOME>
    <PROPERTY>position = (495, 149)</PROPERTY>
</VARIABLE>
<!-- Probability Distributions -->
 <DEFINITION>
      <FOR>node0</FOR>
     <TABLE>0.2216 0.1936 0.5848 </TABLE>
 </DEFINITION>
 <DEFINITION>
      <FOR>node1</FOR>
      <GIVEN>node0</GIVEN>
     <TABLE>0.2566 0.0561 0.6873 0.7052 0.1263 0.1685 0.0589 0.82 0.1211 </TABLE>
 </DEFINITION>
 <DEFINITION>
      <FOR>node2</FOR>
      <GIVEN>node1</GIVEN>
     <TABLE>0.5591 0.1754 0.2655 0.4349 0.0905 0.4746 0.1732 0.4103 0.4165 </TABLE>
 </DEFINITION>
 <DEFINITION>
      <FOR>node3</FOR>
      <GIVEN>node2</GIVEN>
     <TABLE>0.0136 0.6805 0.3059 0.126 0.8385 0.0355 0.1044 0.5939 0.3017 </TABLE>
 </DEFINITION>
 <DEFINITION>
      <FOR>node4</FOR>
      <GIVEN>node3</GIVEN>
     <TABLE>0.0701 0.2267 0.7032 0.2289 0.2331 0.538 0.3017 0.3903 0.308 </TABLE>
 </DEFINITION>
 <DEFINITION>
      <FOR>node5</FOR>
      <GIVEN>node4</GIVEN>
     <TABLE>0.138 0.7172 0.1448 0.5095 0.3906 0.0999 0.4343 0.0328 0.5329 </TABLE>
 </DEFINITION>
</NETWORK>
</BIF>
