<?xml version="1.0" encoding="US-ASCII"?>


<!--
	Bayesian network in XMLBIF v0.3 (BayesNet Interchange Format)
	Produced by JavaBayes (http://www.cs.cmu.edu/~javabayes/
	Number of nodes:6
	Output created Wed Jan 20 11:17:10 CET 2021
-->



<BIF VERSION="0.3">
<NETWORK>
<NAME>InternalNetwork</NAME>
<!-- Variables -->
<VARIABLE TYPE="nature">
    <NAME>node0</NAME>
    <OUTCOME>state0</OUTCOME>
    <OUTCOME>state1</OUTCOME>
    <PROPERTY>position = (15, 150)</PROPERTY>
</VARIABLE>
<!-- Variables -->
<VARIABLE TYPE="nature">
    <NAME>node1</NAME>
    <OUTCOME>state0</OUTCOME>
    <OUTCOME>state1</OUTCOME>
    <OUTCOME>state2</OUTCOME>
    <OUTCOME>state3</OUTCOME>
    <PROPERTY>position = (45, 30)</PROPERTY>
</VARIABLE>
<!-- Variables -->
<VARIABLE TYPE="nature">
    <NAME>node2</NAME>
    <OUTCOME>state0</OUTCOME>
    <OUTCOME>state1</OUTCOME>
    <OUTCOME>state2</OUTCOME>
    <OUTCOME>state3</OUTCOME>
    <PROPERTY>position = (165, 44)</PROPERTY>
</VARIABLE>
<!-- Variables -->
<VARIABLE TYPE="nature">
    <NAME>node3</NAME>
    <OUTCOME>state0</OUTCOME>
    <OUTCOME>state1</OUTCOME>
    <PROPERTY>position = (135, 164)</PROPERTY>
</VARIABLE>
<!-- Variables -->
<VARIABLE TYPE="nature">
    <NAME>node4</NAME>
    <OUTCOME>state0</OUTCOME>
    <OUTCOME>state1</OUTCOME>
    <PROPERTY>position = (285, 30)</PROPERTY>
</VARIABLE>
<!-- Variables -->
<VARIABLE TYPE="nature">
    <NAME>node5</NAME>
    <OUTCOME>state0</OUTCOME>
    <OUTCOME>state1</OUTCOME>
    <OUTCOME>state2</OUTCOME>
    <OUTCOME>state3</OUTCOME>
    <OUTCOME>state4</OUTCOME>
    <PROPERTY>position = (15, 390)</PROPERTY>
</VARIABLE>
<!-- Probability Distributions -->
 <DEFINITION>
      <FOR>node0</FOR>
      <GIVEN>node1</GIVEN>
     <TABLE>0.0571 0.9429 0.4706 0.5294 0.8302 0.1698 0.0584 0.9416 </TABLE>
 </DEFINITION>
 <DEFINITION>
      <FOR>node1</FOR>
     <TABLE>0.3153 0.3196 0.2704 0.0947 </TABLE>
 </DEFINITION>
 <DEFINITION>
      <FOR>node2</FOR>
     <TABLE>0.1457 0.2806 0.2075 0.3662 </TABLE>
 </DEFINITION>
 <DEFINITION>
      <FOR>node3</FOR>
      <GIVEN>node2</GIVEN>
     <TABLE>0.258 0.742 0.2209 0.7791 0.2735 0.7265 0.807 0.193 </TABLE>
 </DEFINITION>
 <DEFINITION>
      <FOR>node4</FOR>
     <TABLE>0.2813 0.7187 </TABLE>
 </DEFINITION>
 <DEFINITION>
      <FOR>node5</FOR>
      <GIVEN>node4</GIVEN>
      <GIVEN>node2</GIVEN>
      <GIVEN>node1</GIVEN>
     <TABLE>0.1289 0.3559 0.49 0.0223 0.0029 0.0986 0.1721 0.026 0.3304 0.3729 0.3187 0.0293 0.1095 0.2945 0.248 0.13 0.2236 0.2118 0.0788 0.3558 0.0757 0.1075 0.1882 0.1321 0.4965 0.1693 0.2733 0.245 0.0686 0.2438 0.1729 0.2204 0.0643 0.3272 0.2152 0.0101 0.0915 0.6005 0.0446 0.2533 0.1808 0.1624 0.6179 0.0345 0.0044 0.0956 0.4686 0.3247 0.1066 0.0045 0.0263 0.0893 0.3159 0.2686 0.2999 0.1434 0.2617 0.2519 0.2446 0.0984 0.0048 0.123 0.3688 0.4794 0.024 0.5261 0.0637 0.0373 0.1589 0.214 0.331 0.0029 0.5823 0.0207 0.0631 0.0568 0.0769 0.0598 0.6356 0.1709 0.0144 0.0405 0.6588 0.1955 0.0908 0.0161 0.3156 0.2614 0.2682 0.1387 0.1436 0.1244 0.5103 0.0253 0.1964 0.0697 0.1613 0.5175 0.1628 0.0887 0.5467 0.2619 0.0245 0.0206 0.1463 0.3759 0.0016 0.4117 0.0992 0.1116 0.1433 0.2587 0.2561 0.0713 0.2706 0.2808 0.1933 0.2603 0.069 0.1966 0.6448 0.06 0.0055 0.0655 0.2242 0.0406 0.2829 0.075 0.3071 0.2944 0.5214 0.0285 0.2112 0.0766 0.1623 0.0269 0.5427 0.1997 0.0399 0.1908 0.0766 0.1204 0.0844 0.1397 0.5789 0.2059 0.0042 0.2864 0.349 0.1545 0.4064 0.0135 0.4202 0.0272 0.1327 0.4164 0.0494 0.3404 0.1015 0.0923 </TABLE>
 </DEFINITION>
</NETWORK>
</BIF>
