<?xml version="1.0" encoding="US-ASCII"?>


<!--
	Bayesian network in XMLBIF v0.3 (BayesNet Interchange Format)
	Produced by JavaBayes (http://www.cs.cmu.edu/~javabayes/
	Number of nodes:8
	Output created Thu Jan 14 12:47:35 CET 2021
-->



<BIF VERSION="0.3">
<NETWORK>
<NAME>InternalNetwork</NAME>
<!-- Variables -->
<VARIABLE TYPE="nature">
    <NAME>node0</NAME>
    <OUTCOME>state0</OUTCOME>
    <OUTCOME>state1</OUTCOME>
    <PROPERTY>position = (45, 30)</PROPERTY>
</VARIABLE>
<!-- Variables -->
<VARIABLE TYPE="nature">
    <NAME>node1</NAME>
    <OUTCOME>state0</OUTCOME>
    <OUTCOME>state1</OUTCOME>
    <PROPERTY>position = (165, 44)</PROPERTY>
</VARIABLE>
<!-- Variables -->
<VARIABLE TYPE="nature">
    <NAME>node2</NAME>
    <OUTCOME>state0</OUTCOME>
    <OUTCOME>state1</OUTCOME>
    <PROPERTY>position = (285, 30)</PROPERTY>
</VARIABLE>
<!-- Variables -->
<VARIABLE TYPE="nature">
    <NAME>node3</NAME>
    <OUTCOME>state0</OUTCOME>
    <OUTCOME>state1</OUTCOME>
    <OUTCOME>state2</OUTCOME>
    <OUTCOME>state3</OUTCOME>
    <PROPERTY>position = (15, 150)</PROPERTY>
</VARIABLE>
<!-- Variables -->
<VARIABLE TYPE="nature">
    <NAME>node4</NAME>
    <OUTCOME>state0</OUTCOME>
    <OUTCOME>state1</OUTCOME>
    <OUTCOME>state2</OUTCOME>
    <OUTCOME>state3</OUTCOME>
    <PROPERTY>position = (405, 15)</PROPERTY>
</VARIABLE>
<!-- Variables -->
<VARIABLE TYPE="nature">
    <NAME>node5</NAME>
    <OUTCOME>state0</OUTCOME>
    <OUTCOME>state1</OUTCOME>
    <OUTCOME>state2</OUTCOME>
    <OUTCOME>state3</OUTCOME>
    <PROPERTY>position = (44, 270)</PROPERTY>
</VARIABLE>
<!-- Variables -->
<VARIABLE TYPE="nature">
    <NAME>node6</NAME>
    <OUTCOME>state0</OUTCOME>
    <OUTCOME>state1</OUTCOME>
    <OUTCOME>state2</OUTCOME>
    <OUTCOME>state3</OUTCOME>
    <PROPERTY>position = (15, 390)</PROPERTY>
</VARIABLE>
<!-- Variables -->
<VARIABLE TYPE="nature">
    <NAME>node7</NAME>
    <OUTCOME>state0</OUTCOME>
    <OUTCOME>state1</OUTCOME>
    <OUTCOME>state2</OUTCOME>
    <OUTCOME>state3</OUTCOME>
    <PROPERTY>position = (135, 164)</PROPERTY>
</VARIABLE>
<!-- Probability Distributions -->
 <DEFINITION>
      <FOR>node0</FOR>
     <TABLE>0.9776 0.0224 </TABLE>
 </DEFINITION>
 <DEFINITION>
      <FOR>node1</FOR>
     <TABLE>0.9373 0.0627 </TABLE>
 </DEFINITION>
 <DEFINITION>
      <FOR>node2</FOR>
     <TABLE>0.352 0.648 </TABLE>
 </DEFINITION>
 <DEFINITION>
      <FOR>node3</FOR>
      <GIVEN>node7</GIVEN>
     <TABLE>0.8127 0.0709 0.0723 0.0441 0.095 0.1456 0.4599 0.2995 0.1469 0.0447 0.5206 0.2878 0.2404 0.0273 0.2034 0.5289 </TABLE>
 </DEFINITION>
 <DEFINITION>
      <FOR>node4</FOR>
     <TABLE>0.6946 0.0896 0.2001 0.0157 </TABLE>
 </DEFINITION>
 <DEFINITION>
      <FOR>node5</FOR>
      <GIVEN>node2</GIVEN>
      <GIVEN>node7</GIVEN>
     <TABLE>0.0984 0.7097 0.1391 0.0528 4.0E-4 0.3512 0.2089 0.4395 0.7068 0.2121 0.0192 0.0619 0.1266 0.0495 0.4874 0.3365 0.0828 0.486 0.3796 0.0516 0.2052 0.4121 0.3024 0.0803 0.4701 0.0072 0.2526 0.2701 0.0241 0.6871 0.279 0.0098 </TABLE>
 </DEFINITION>
 <DEFINITION>
      <FOR>node6</FOR>
      <GIVEN>node1</GIVEN>
      <GIVEN>node0</GIVEN>
      <GIVEN>node4</GIVEN>
     <TABLE>0.3737 0.5504 0.0614 0.0145 0.0063 0.2011 0.3594 0.4332 0.0375 0.3755 0.2832 0.3038 0.6421 0.2323 0.0397 0.0859 0.2093 0.4745 0.28 0.0362 0.4506 0.0103 0.1691 0.37 0.4647 0.3504 0.0025 0.1824 0.3271 0.0528 0.3345 0.2856 0.4938 0.1573 0.0706 0.2783 0.3011 0.1108 0.3893 0.1988 0.6933 0.0558 0.1572 0.0937 0.0235 0.599 0.3582 0.0193 0.1671 0.7052 0.0432 0.0845 0.1172 0.2177 0.4418 0.2233 0.1616 0.402 0.2939 0.1425 0.7405 0.2118 0.0364 0.0113 </TABLE>
 </DEFINITION>
 <DEFINITION>
      <FOR>node7</FOR>
      <GIVEN>node0</GIVEN>
     <TABLE>0.4585 0.3202 0.1304 0.0909 0.331 0.1494 0.3648 0.1548 </TABLE>
 </DEFINITION>
</NETWORK>
</BIF>
