<?xml version="1.0" encoding="US-ASCII"?>


<!--
	Bayesian network in XMLBIF v0.3 (BayesNet Interchange Format)
	Produced by JavaBayes (http://www.cs.cmu.edu/~javabayes/
	Number of nodes:10
	Output created Thu Jan 14 12:47:35 CET 2021
-->



<BIF VERSION="0.3">
<NETWORK>
<NAME>InternalNetwork</NAME>
<!-- Variables -->
<VARIABLE TYPE="nature">
    <NAME>node0</NAME>
    <OUTCOME>state0</OUTCOME>
    <OUTCOME>state1</OUTCOME>
    <PROPERTY>position = (15, 150)</PROPERTY>
</VARIABLE>
<!-- Variables -->
<VARIABLE TYPE="nature">
    <NAME>node1</NAME>
    <OUTCOME>state0</OUTCOME>
    <OUTCOME>state1</OUTCOME>
    <OUTCOME>state2</OUTCOME>
    <OUTCOME>state3</OUTCOME>
    <OUTCOME>state4</OUTCOME>
    <PROPERTY>position = (135, 164)</PROPERTY>
</VARIABLE>
<!-- Variables -->
<VARIABLE TYPE="nature">
    <NAME>node2</NAME>
    <OUTCOME>state0</OUTCOME>
    <OUTCOME>state1</OUTCOME>
    <OUTCOME>state2</OUTCOME>
    <OUTCOME>state3</OUTCOME>
    <OUTCOME>state4</OUTCOME>
    <PROPERTY>position = (45, 30)</PROPERTY>
</VARIABLE>
<!-- Variables -->
<VARIABLE TYPE="nature">
    <NAME>node3</NAME>
    <OUTCOME>state0</OUTCOME>
    <OUTCOME>state1</OUTCOME>
    <OUTCOME>state2</OUTCOME>
    <PROPERTY>position = (255, 150)</PROPERTY>
</VARIABLE>
<!-- Variables -->
<VARIABLE TYPE="nature">
    <NAME>node4</NAME>
    <OUTCOME>state0</OUTCOME>
    <OUTCOME>state1</OUTCOME>
    <OUTCOME>state2</OUTCOME>
    <OUTCOME>state3</OUTCOME>
    <PROPERTY>position = (375, 135)</PROPERTY>
</VARIABLE>
<!-- Variables -->
<VARIABLE TYPE="nature">
    <NAME>node5</NAME>
    <OUTCOME>state0</OUTCOME>
    <OUTCOME>state1</OUTCOME>
    <OUTCOME>state2</OUTCOME>
    <PROPERTY>position = (44, 270)</PROPERTY>
</VARIABLE>
<!-- Variables -->
<VARIABLE TYPE="nature">
    <NAME>node6</NAME>
    <OUTCOME>state0</OUTCOME>
    <OUTCOME>state1</OUTCOME>
    <OUTCOME>state2</OUTCOME>
    <OUTCOME>state3</OUTCOME>
    <PROPERTY>position = (164, 284)</PROPERTY>
</VARIABLE>
<!-- Variables -->
<VARIABLE TYPE="nature">
    <NAME>node7</NAME>
    <OUTCOME>state0</OUTCOME>
    <OUTCOME>state1</OUTCOME>
    <PROPERTY>position = (495, 149)</PROPERTY>
</VARIABLE>
<!-- Variables -->
<VARIABLE TYPE="nature">
    <NAME>node8</NAME>
    <OUTCOME>state0</OUTCOME>
    <OUTCOME>state1</OUTCOME>
    <OUTCOME>state2</OUTCOME>
    <OUTCOME>state3</OUTCOME>
    <OUTCOME>state4</OUTCOME>
    <PROPERTY>position = (165, 44)</PROPERTY>
</VARIABLE>
<!-- Variables -->
<VARIABLE TYPE="nature">
    <NAME>node9</NAME>
    <OUTCOME>state0</OUTCOME>
    <OUTCOME>state1</OUTCOME>
    <OUTCOME>state2</OUTCOME>
    <PROPERTY>position = (285, 30)</PROPERTY>
</VARIABLE>
<!-- Probability Distributions -->
 <DEFINITION>
      <FOR>node0</FOR>
      <GIVEN>node2</GIVEN>
     <TABLE>0.3844 0.6156 0.4626 0.5374 0.8305 0.1695 0.2469 0.7531 0.7589 0.2411 </TABLE>
 </DEFINITION>
 <DEFINITION>
      <FOR>node1</FOR>
      <GIVEN>node4</GIVEN>
     <TABLE>0.1084 0.2585 0.268 0.2086 0.1565 0.0025 0.108 0.0401 0.4235 0.4259 0.0504 0.6065 0.0646 0.2133 0.0652 0.1873 0.2233 0.3108 0.1544 0.1242 </TABLE>
 </DEFINITION>
 <DEFINITION>
      <FOR>node2</FOR>
     <TABLE>0.332 0.2355 0.0133 0.1103 0.3089 </TABLE>
 </DEFINITION>
 <DEFINITION>
      <FOR>node3</FOR>
      <GIVEN>node1</GIVEN>
     <TABLE>0.3251 0.3991 0.2758 0.0696 0.0723 0.8581 0.1123 0.5756 0.3121 0.7472 0.07 0.1828 0.4399 0.0897 0.4704 </TABLE>
 </DEFINITION>
 <DEFINITION>
      <FOR>node4</FOR>
      <GIVEN>node8</GIVEN>
     <TABLE>0.0772 0.1171 0.772 0.0337 0.2426 0.2847 0.0135 0.4592 0.3598 0.2015 0.3924 0.0463 0.7655 0.1317 0.0317 0.0711 0.2618 0.246 0.0989 0.3933 </TABLE>
 </DEFINITION>
 <DEFINITION>
      <FOR>node5</FOR>
      <GIVEN>node0</GIVEN>
      <GIVEN>node3</GIVEN>
     <TABLE>0.241 0.5866 0.1724 0.3077 0.4693 0.223 0.1808 0.3264 0.4928 0.0482 0.3498 0.602 0.3076 0.2505 0.4419 0.022 0.0984 0.8796 </TABLE>
 </DEFINITION>
 <DEFINITION>
      <FOR>node6</FOR>
      <GIVEN>node9</GIVEN>
      <GIVEN>node1</GIVEN>
     <TABLE>0.193 0.222 0.3668 0.2182 0.2832 0.291 0.0971 0.3287 0.5267 0.1157 0.0739 0.2837 0.2854 0.2309 0.0936 0.3901 0.1714 0.3492 0.1189 0.3605 0.1696 0.0077 0.4035 0.4192 0.0367 0.5487 0.1518 0.2628 0.0994 0.7023 0.0328 0.1655 0.2564 0.4821 0.0379 0.2236 0.234 0.1868 0.5227 0.0565 0.0106 0.877 0.0849 0.0275 0.0292 0.0164 0.5593 0.3951 0.079 0.2796 0.4791 0.1623 0.0544 0.2505 0.3422 0.3529 0.3012 0.2328 0.0956 0.3704 </TABLE>
 </DEFINITION>
 <DEFINITION>
      <FOR>node7</FOR>
      <GIVEN>node4</GIVEN>
     <TABLE>0.9019 0.0981 0.9605 0.0395 0.9606 0.0394 0.9198 0.0802 </TABLE>
 </DEFINITION>
 <DEFINITION>
      <FOR>node8</FOR>
     <TABLE>0.347 0.0821 0.0824 0.0293 0.4592 </TABLE>
 </DEFINITION>
 <DEFINITION>
      <FOR>node9</FOR>
     <TABLE>0.0162 0.1086 0.8752 </TABLE>
 </DEFINITION>
</NETWORK>
</BIF>
