<?xml version="1.0" encoding="US-ASCII"?>


<!--
	Bayesian network in XMLBIF v0.3 (BayesNet Interchange Format)
	Produced by JavaBayes (http://www.cs.cmu.edu/~javabayes/
	Number of nodes:10
	Output created Fri Feb 12 19:04:33 CET 2021
-->



<BIF VERSION="0.3">
<NETWORK>
<NAME>InternalNetwork</NAME>
<!-- Variables -->
<VARIABLE TYPE="nature">
    <NAME>node0</NAME>
    <OUTCOME>state0</OUTCOME>
    <OUTCOME>state1</OUTCOME>
    <PROPERTY>position = (45, 30)</PROPERTY>
</VARIABLE>
<!-- Variables -->
<VARIABLE TYPE="nature">
    <NAME>node1</NAME>
    <OUTCOME>state0</OUTCOME>
    <OUTCOME>state1</OUTCOME>
    <OUTCOME>state2</OUTCOME>
    <OUTCOME>state3</OUTCOME>
    <PROPERTY>position = (165, 44)</PROPERTY>
</VARIABLE>
<!-- Variables -->
<VARIABLE TYPE="nature">
    <NAME>node2</NAME>
    <OUTCOME>state0</OUTCOME>
    <OUTCOME>state1</OUTCOME>
    <OUTCOME>state2</OUTCOME>
    <OUTCOME>state3</OUTCOME>
    <PROPERTY>position = (285, 30)</PROPERTY>
</VARIABLE>
<!-- Variables -->
<VARIABLE TYPE="nature">
    <NAME>node3</NAME>
    <OUTCOME>state0</OUTCOME>
    <OUTCOME>state1</OUTCOME>
    <PROPERTY>position = (405, 15)</PROPERTY>
</VARIABLE>
<!-- Variables -->
<VARIABLE TYPE="nature">
    <NAME>node4</NAME>
    <OUTCOME>state0</OUTCOME>
    <OUTCOME>state1</OUTCOME>
    <PROPERTY>position = (44, 270)</PROPERTY>
</VARIABLE>
<!-- Variables -->
<VARIABLE TYPE="nature">
    <NAME>node5</NAME>
    <OUTCOME>state0</OUTCOME>
    <OUTCOME>state1</OUTCOME>
    <PROPERTY>position = (15, 150)</PROPERTY>
</VARIABLE>
<!-- Variables -->
<VARIABLE TYPE="nature">
    <NAME>node6</NAME>
    <OUTCOME>state0</OUTCOME>
    <OUTCOME>state1</OUTCOME>
    <PROPERTY>position = (525, 29)</PROPERTY>
</VARIABLE>
<!-- Variables -->
<VARIABLE TYPE="nature">
    <NAME>node7</NAME>
    <OUTCOME>state0</OUTCOME>
    <OUTCOME>state1</OUTCOME>
    <OUTCOME>state2</OUTCOME>
    <PROPERTY>position = (164, 284)</PROPERTY>
</VARIABLE>
<!-- Variables -->
<VARIABLE TYPE="nature">
    <NAME>node8</NAME>
    <OUTCOME>state0</OUTCOME>
    <OUTCOME>state1</OUTCOME>
    <OUTCOME>state2</OUTCOME>
    <PROPERTY>position = (135, 164)</PROPERTY>
</VARIABLE>
<!-- Variables -->
<VARIABLE TYPE="nature">
    <NAME>node9</NAME>
    <OUTCOME>state0</OUTCOME>
    <OUTCOME>state1</OUTCOME>
    <PROPERTY>position = (15, 390)</PROPERTY>
</VARIABLE>
<!-- Probability Distributions -->
 <DEFINITION>
      <FOR>node0</FOR>
     <TABLE>0.7002 0.2998 </TABLE>
 </DEFINITION>
 <DEFINITION>
      <FOR>node1</FOR>
     <TABLE>7.0E-4 0.4236 0.5595 0.0162 </TABLE>
 </DEFINITION>
 <DEFINITION>
      <FOR>node2</FOR>
     <TABLE>0.6367 0.1427 0.1754 0.0452 </TABLE>
 </DEFINITION>
 <DEFINITION>
      <FOR>node3</FOR>
     <TABLE>0.3783 0.6217 </TABLE>
 </DEFINITION>
 <DEFINITION>
      <FOR>node4</FOR>
      <GIVEN>node7</GIVEN>
      <GIVEN>node6</GIVEN>
     <TABLE>0.2578 0.7422 0.6545 0.3455 0.4164 0.5836 0.5288 0.4712 0.6546 0.3454 0.2245 0.7755 </TABLE>
 </DEFINITION>
 <DEFINITION>
      <FOR>node5</FOR>
      <GIVEN>node7</GIVEN>
     <TABLE>0.2552 0.7448 0.2255 0.7745 0.9082 0.0918 </TABLE>
 </DEFINITION>
 <DEFINITION>
      <FOR>node6</FOR>
     <TABLE>0.3036 0.6964 </TABLE>
 </DEFINITION>
 <DEFINITION>
      <FOR>node7</FOR>
      <GIVEN>node0</GIVEN>
      <GIVEN>node1</GIVEN>
     <TABLE>0.0129 0.7463 0.2408 0.0453 0.4777 0.477 0.0189 0.2013 0.7798 0.0311 0.9332 0.0357 0.2262 0.6826 0.0912 0.1358 0.551 0.3132 0.1459 0.422 0.4321 0.6435 0.1282 0.2283 </TABLE>
 </DEFINITION>
 <DEFINITION>
      <FOR>node8</FOR>
      <GIVEN>node3</GIVEN>
     <TABLE>0.4267 0.2157 0.3576 0.7029 0.28 0.0171 </TABLE>
 </DEFINITION>
 <DEFINITION>
      <FOR>node9</FOR>
      <GIVEN>node8</GIVEN>
      <GIVEN>node2</GIVEN>
      <GIVEN>node1</GIVEN>
     <TABLE>0.353 0.647 0.5661 0.4339 0.2029 0.7971 0.7759 0.2241 0.89 0.11 0.8692 0.1308 0.3238 0.6762 0.4453 0.5547 0.3926 0.6074 0.4476 0.5524 0.4608 0.5392 0.7991 0.2009 0.3798 0.6202 0.7949 0.2051 0.9257 0.0743 0.4156 0.5844 0.1224 0.8776 0.0923 0.9077 0.5419 0.4581 0.3653 0.6347 0.4455 0.5545 0.551 0.449 0.7272 0.2728 0.4007 0.5993 0.2957 0.7043 0.9621 0.0379 0.9547 0.0453 0.4263 0.5737 0.0493 0.9507 0.9175 0.0825 0.7918 0.2082 0.2661 0.7339 0.7567 0.2433 0.166 0.834 0.8421 0.1579 0.0769 0.9231 0.8906 0.1094 0.4299 0.5701 0.4656 0.5344 0.8408 0.1592 0.2692 0.7308 0.4621 0.5379 0.2831 0.7169 0.844 0.156 0.2098 0.7902 0.975 0.025 0.3864 0.6136 0.5052 0.4948 </TABLE>
 </DEFINITION>
</NETWORK>
</BIF>
