<?xml version="1.0" encoding="US-ASCII"?>


<!--
	Bayesian network in XMLBIF v0.3 (BayesNet Interchange Format)
	Produced by JavaBayes (http://www.cs.cmu.edu/~javabayes/
	Number of nodes:8
	Output created Wed Jan 20 11:17:11 CET 2021
-->



<BIF VERSION="0.3">
<NETWORK>
<NAME>InternalNetwork</NAME>
<!-- Variables -->
<VARIABLE TYPE="nature">
    <NAME>node0</NAME>
    <OUTCOME>state0</OUTCOME>
    <OUTCOME>state1</OUTCOME>
    <OUTCOME>state2</OUTCOME>
    <PROPERTY>position = (44, 270)</PROPERTY>
</VARIABLE>
<!-- Variables -->
<VARIABLE TYPE="nature">
    <NAME>node1</NAME>
    <OUTCOME>state0</OUTCOME>
    <OUTCOME>state1</OUTCOME>
    <OUTCOME>state2</OUTCOME>
    <PROPERTY>position = (45, 30)</PROPERTY>
</VARIABLE>
<!-- Variables -->
<VARIABLE TYPE="nature">
    <NAME>node2</NAME>
    <OUTCOME>state0</OUTCOME>
    <OUTCOME>state1</OUTCOME>
    <OUTCOME>state2</OUTCOME>
    <OUTCOME>state3</OUTCOME>
    <OUTCOME>state4</OUTCOME>
    <PROPERTY>position = (15, 150)</PROPERTY>
</VARIABLE>
<!-- Variables -->
<VARIABLE TYPE="nature">
    <NAME>node3</NAME>
    <OUTCOME>state0</OUTCOME>
    <OUTCOME>state1</OUTCOME>
    <OUTCOME>state2</OUTCOME>
    <OUTCOME>state3</OUTCOME>
    <PROPERTY>position = (164, 284)</PROPERTY>
</VARIABLE>
<!-- Variables -->
<VARIABLE TYPE="nature">
    <NAME>node4</NAME>
    <OUTCOME>state0</OUTCOME>
    <OUTCOME>state1</OUTCOME>
    <OUTCOME>state2</OUTCOME>
    <PROPERTY>position = (165, 44)</PROPERTY>
</VARIABLE>
<!-- Variables -->
<VARIABLE TYPE="nature">
    <NAME>node5</NAME>
    <OUTCOME>state0</OUTCOME>
    <OUTCOME>state1</OUTCOME>
    <OUTCOME>state2</OUTCOME>
    <OUTCOME>state3</OUTCOME>
    <OUTCOME>state4</OUTCOME>
    <PROPERTY>position = (285, 30)</PROPERTY>
</VARIABLE>
<!-- Variables -->
<VARIABLE TYPE="nature">
    <NAME>node6</NAME>
    <OUTCOME>state0</OUTCOME>
    <OUTCOME>state1</OUTCOME>
    <OUTCOME>state2</OUTCOME>
    <OUTCOME>state3</OUTCOME>
    <PROPERTY>position = (284, 270)</PROPERTY>
</VARIABLE>
<!-- Variables -->
<VARIABLE TYPE="nature">
    <NAME>node7</NAME>
    <OUTCOME>state0</OUTCOME>
    <OUTCOME>state1</OUTCOME>
    <OUTCOME>state2</OUTCOME>
    <PROPERTY>position = (405, 15)</PROPERTY>
</VARIABLE>
<!-- Probability Distributions -->
 <DEFINITION>
      <FOR>node0</FOR>
      <GIVEN>node5</GIVEN>
      <GIVEN>node7</GIVEN>
     <TABLE>0.0416 0.7725 0.1859 0.0748 0.5581 0.3671 0.3795 0.4497 0.1708 0.2501 0.7408 0.0091 0.2146 0.2347 0.5507 0.2234 0.1353 0.6413 0.5596 0.2547 0.1857 0.4127 0.5101 0.0772 0.2753 0.11 0.6147 0.5162 0.2979 0.1859 0.1522 0.3005 0.5473 0.6294 0.3606 0.01 0.3628 0.0532 0.584 0.0629 0.8252 0.1119 0.738 0.2006 0.0614 </TABLE>
 </DEFINITION>
 <DEFINITION>
      <FOR>node1</FOR>
     <TABLE>0.1137 0.4681 0.4182 </TABLE>
 </DEFINITION>
 <DEFINITION>
      <FOR>node2</FOR>
      <GIVEN>node5</GIVEN>
     <TABLE>0.176 0.2469 0.0565 0.4413 0.0793 0.19 0.0758 0.1611 0.0723 0.5008 0.0231 0.1242 0.1732 0.4918 0.1877 0.1644 0.4112 0.0782 0.2449 0.1013 0.2278 0.3471 0.2318 0.0655 0.1278 </TABLE>
 </DEFINITION>
 <DEFINITION>
      <FOR>node3</FOR>
      <GIVEN>node1</GIVEN>
      <GIVEN>node4</GIVEN>
     <TABLE>0.2683 0.0129 0.2195 0.4993 0.3539 0.0466 0.5557 0.0438 0.0361 0.5691 0.3144 0.0804 0.0818 0.2047 0.3326 0.3809 0.4094 0.1036 0.0095 0.4775 0.2302 0.6299 0.0815 0.0584 0.6804 0.1094 0.0109 0.1993 0.4969 0.0014 0.05 0.4517 0.6656 0.1049 0.075 0.1545 </TABLE>
 </DEFINITION>
 <DEFINITION>
      <FOR>node4</FOR>
     <TABLE>0.7424 0.0439 0.2137 </TABLE>
 </DEFINITION>
 <DEFINITION>
      <FOR>node5</FOR>
     <TABLE>0.1484 0.1457 0.2653 0.2556 0.185 </TABLE>
 </DEFINITION>
 <DEFINITION>
      <FOR>node6</FOR>
      <GIVEN>node1</GIVEN>
      <GIVEN>node0</GIVEN>
     <TABLE>0.423 0.3334 0.1742 0.0694 0.2721 0.2145 0.0726 0.4408 0.1473 0.3463 0.4184 0.088 0.0391 0.4584 0.0174 0.4851 0.337 0.3926 0.1717 0.0987 0.6508 0.1877 0.0967 0.0648 0.1482 0.2891 0.1439 0.4188 0.3335 0.1105 0.5374 0.0186 0.179 0.0831 0.1544 0.5835 </TABLE>
 </DEFINITION>
 <DEFINITION>
      <FOR>node7</FOR>
     <TABLE>0.1328 0.8545 0.0127 </TABLE>
 </DEFINITION>
</NETWORK>
</BIF>
