<?xml version="1.0" encoding="US-ASCII"?>


<!--
	Bayesian network in XMLBIF v0.3 (BayesNet Interchange Format)
	Produced by JavaBayes (http://www.cs.cmu.edu/~javabayes/
	Number of nodes:7
	Output created Wed Feb 17 10:47:29 CET 2021
-->



<BIF VERSION="0.3">
<NETWORK>
<NAME>InternalNetwork</NAME>
<!-- Variables -->
<VARIABLE TYPE="nature">
    <NAME>node0</NAME>
    <OUTCOME>state0</OUTCOME>
    <OUTCOME>state1</OUTCOME>
    <OUTCOME>state2</OUTCOME>
    <PROPERTY>position = (44, 270)</PROPERTY>
</VARIABLE>
<!-- Variables -->
<VARIABLE TYPE="nature">
    <NAME>node1</NAME>
    <OUTCOME>state0</OUTCOME>
    <OUTCOME>state1</OUTCOME>
    <OUTCOME>state2</OUTCOME>
    <OUTCOME>state3</OUTCOME>
    <PROPERTY>position = (45, 30)</PROPERTY>
</VARIABLE>
<!-- Variables -->
<VARIABLE TYPE="nature">
    <NAME>node2</NAME>
    <OUTCOME>state0</OUTCOME>
    <OUTCOME>state1</OUTCOME>
    <OUTCOME>state2</OUTCOME>
    <OUTCOME>state3</OUTCOME>
    <PROPERTY>position = (165, 44)</PROPERTY>
</VARIABLE>
<!-- Variables -->
<VARIABLE TYPE="nature">
    <NAME>node3</NAME>
    <OUTCOME>state0</OUTCOME>
    <OUTCOME>state1</OUTCOME>
    <OUTCOME>state2</OUTCOME>
    <OUTCOME>state3</OUTCOME>
    <PROPERTY>position = (15, 150)</PROPERTY>
</VARIABLE>
<!-- Variables -->
<VARIABLE TYPE="nature">
    <NAME>node4</NAME>
    <OUTCOME>state0</OUTCOME>
    <OUTCOME>state1</OUTCOME>
    <OUTCOME>state2</OUTCOME>
    <PROPERTY>position = (164, 284)</PROPERTY>
</VARIABLE>
<!-- Variables -->
<VARIABLE TYPE="nature">
    <NAME>node5</NAME>
    <OUTCOME>state0</OUTCOME>
    <OUTCOME>state1</OUTCOME>
    <OUTCOME>state2</OUTCOME>
    <OUTCOME>state3</OUTCOME>
    <PROPERTY>position = (285, 30)</PROPERTY>
</VARIABLE>
<!-- Variables -->
<VARIABLE TYPE="nature">
    <NAME>node6</NAME>
    <OUTCOME>state0</OUTCOME>
    <OUTCOME>state1</OUTCOME>
    <OUTCOME>state2</OUTCOME>
    <OUTCOME>state3</OUTCOME>
    <PROPERTY>position = (135, 164)</PROPERTY>
</VARIABLE>
<!-- Probability Distributions -->
 <DEFINITION>
      <FOR>node0</FOR>
      <GIVEN>node2</GIVEN>
      <GIVEN>node6</GIVEN>
     <TABLE>0.1662 0.1958 0.638 0.1886 0.7403 0.0711 0.438 0.2598 0.3022 0.0716 0.1591 0.7693 0.0484 0.1779 0.7737 0.0303 0.9236 0.0461 0.8898 0.0127 0.0975 0.0058 0.2688 0.7254 0.8416 0.0454 0.113 0.5022 0.4162 0.0816 0.7591 0.1304 0.1105 0.7398 0.0381 0.2221 0.101 0.459 0.44 0.0614 0.4323 0.5063 0.5314 0.0498 0.4188 0.3525 0.2847 0.3628 </TABLE>
 </DEFINITION>
 <DEFINITION>
      <FOR>node1</FOR>
     <TABLE>0.2735 0.4872 0.1771 0.0622 </TABLE>
 </DEFINITION>
 <DEFINITION>
      <FOR>node2</FOR>
     <TABLE>0.0466 0.4262 0.2091 0.3181 </TABLE>
 </DEFINITION>
 <DEFINITION>
      <FOR>node3</FOR>
      <GIVEN>node6</GIVEN>
     <TABLE>0.0807 0.5245 0.0566 0.3382 0.509 0.2563 0.109 0.1257 0.2655 0.0919 0.6104 0.0322 0.0279 0.3568 0.1486 0.4667 </TABLE>
 </DEFINITION>
 <DEFINITION>
      <FOR>node4</FOR>
      <GIVEN>node1</GIVEN>
      <GIVEN>node6</GIVEN>
     <TABLE>0.8171 0.0298 0.1531 0.4395 0.4525 0.108 0.4766 0.0708 0.4526 0.5675 0.1925 0.24 0.2087 0.6798 0.1115 0.3048 0.1936 0.5016 0.1953 0.3223 0.4824 0.3464 0.0919 0.5617 0.4421 0.219 0.3389 0.9372 0.059 0.0038 0.2671 0.6912 0.0417 0.3841 0.5978 0.0181 0.2033 0.5406 0.2561 0.167 0.1312 0.7018 0.0054 0.81 0.1846 0.0888 0.7044 0.2068 </TABLE>
 </DEFINITION>
 <DEFINITION>
      <FOR>node5</FOR>
     <TABLE>0.106 0.2469 0.3181 0.329 </TABLE>
 </DEFINITION>
 <DEFINITION>
      <FOR>node6</FOR>
      <GIVEN>node5</GIVEN>
     <TABLE>0.4321 0.0407 0.0233 0.5039 0.114 0.4528 0.2121 0.2211 0.1561 0.3417 0.0109 0.4913 0.4353 0.2077 0.0476 0.3094 </TABLE>
 </DEFINITION>
</NETWORK>
</BIF>
