<?xml version="1.0" encoding="US-ASCII"?>


<!--
	Bayesian network in XMLBIF v0.3 (BayesNet Interchange Format)
	Produced by JavaBayes (http://www.cs.cmu.edu/~javabayes/
	Number of nodes:6
	Output created Tue Feb 02 20:35:59 CET 2021
-->



<BIF VERSION="0.3">
<NETWORK>
<NAME>InternalNetwork</NAME>
<!-- Variables -->
<VARIABLE TYPE="nature">
    <NAME>node0</NAME>
    <OUTCOME>state0</OUTCOME>
    <OUTCOME>state1</OUTCOME>
    <OUTCOME>state2</OUTCOME>
    <OUTCOME>state3</OUTCOME>
    <PROPERTY>position = (45, 30)</PROPERTY>
</VARIABLE>
<!-- Variables -->
<VARIABLE TYPE="nature">
    <NAME>node1</NAME>
    <OUTCOME>state0</OUTCOME>
    <OUTCOME>state1</OUTCOME>
    <OUTCOME>state2</OUTCOME>
    <OUTCOME>state3</OUTCOME>
    <PROPERTY>position = (165, 44)</PROPERTY>
</VARIABLE>
<!-- Variables -->
<VARIABLE TYPE="nature">
    <NAME>node2</NAME>
    <OUTCOME>state0</OUTCOME>
    <OUTCOME>state1</OUTCOME>
    <OUTCOME>state2</OUTCOME>
    <OUTCOME>state3</OUTCOME>
    <PROPERTY>position = (44, 270)</PROPERTY>
</VARIABLE>
<!-- Variables -->
<VARIABLE TYPE="nature">
    <NAME>node3</NAME>
    <OUTCOME>state0</OUTCOME>
    <OUTCOME>state1</OUTCOME>
    <PROPERTY>position = (15, 150)</PROPERTY>
</VARIABLE>
<!-- Variables -->
<VARIABLE TYPE="nature">
    <NAME>node4</NAME>
    <OUTCOME>state0</OUTCOME>
    <OUTCOME>state1</OUTCOME>
    <OUTCOME>state2</OUTCOME>
    <OUTCOME>state3</OUTCOME>
    <PROPERTY>position = (164, 284)</PROPERTY>
</VARIABLE>
<!-- Variables -->
<VARIABLE TYPE="nature">
    <NAME>node5</NAME>
    <OUTCOME>state0</OUTCOME>
    <OUTCOME>state1</OUTCOME>
    <OUTCOME>state2</OUTCOME>
    <OUTCOME>state3</OUTCOME>
    <PROPERTY>position = (285, 30)</PROPERTY>
</VARIABLE>
<!-- Probability Distributions -->
 <DEFINITION>
      <FOR>node0</FOR>
     <TABLE>0.7664 0.0193 0.2126 0.0017 </TABLE>
 </DEFINITION>
 <DEFINITION>
      <FOR>node1</FOR>
     <TABLE>0.16 0.045 0.1155 0.6795 </TABLE>
 </DEFINITION>
 <DEFINITION>
      <FOR>node2</FOR>
      <GIVEN>node1</GIVEN>
      <GIVEN>node5</GIVEN>
     <TABLE>0.1097 0.0869 0.5284 0.275 0.3089 0.1195 0.0727 0.4989 0.0261 0.7304 0.1973 0.0462 0.006 0.4715 0.1318 0.3907 0.1619 0.1687 0.5974 0.072 0.1429 0.3024 0.0172 0.5375 0.1847 0.2731 0.3418 0.2004 0.4728 0.4304 0.0101 0.0867 0.1596 0.2068 0.4988 0.1348 0.2705 0.112 0.346 0.2715 0.0845 0.0066 0.5311 0.3778 0.1421 0.326 0.0658 0.4661 0.5139 0.1001 0.3494 0.0366 0.1169 0.4678 0.233 0.1823 0.6245 0.1417 0.2093 0.0245 0.5212 0.2646 0.0189 0.1953 </TABLE>
 </DEFINITION>
 <DEFINITION>
      <FOR>node3</FOR>
      <GIVEN>node2</GIVEN>
     <TABLE>0.0444 0.9556 0.1151 0.8849 0.7217 0.2783 0.5982 0.4018 </TABLE>
 </DEFINITION>
 <DEFINITION>
      <FOR>node4</FOR>
      <GIVEN>node1</GIVEN>
      <GIVEN>node0</GIVEN>
     <TABLE>0.0605 0.5068 0.006 0.4267 0.0616 0.414 0.2388 0.2856 0.0143 0.4501 0.4951 0.0405 0.1703 0.0147 0.0731 0.7419 0.3407 0.2431 0.1364 0.2798 0.4754 0.2363 0.1759 0.1124 0.0093 0.1548 0.5922 0.2437 0.0895 0.5718 0.0679 0.2708 0.1981 0.0538 0.5743 0.1738 0.0098 0.0212 0.4117 0.5573 0.0525 0.8251 0.0115 0.1109 0.139 0.3614 0.1254 0.3742 0.1163 0.1772 0.2989 0.4076 0.0235 0.5352 0.066 0.3753 0.6865 0.011 0.1384 0.1641 0.0223 0.4047 0.1472 0.4258 </TABLE>
 </DEFINITION>
 <DEFINITION>
      <FOR>node5</FOR>
     <TABLE>0.2986 0.5664 0.0058 0.1292 </TABLE>
 </DEFINITION>
</NETWORK>
</BIF>
