<?xml version="1.0" encoding="US-ASCII"?>


<!--
	Bayesian network in XMLBIF v0.3 (BayesNet Interchange Format)
	Produced by JavaBayes (http://www.cs.cmu.edu/~javabayes/
	Number of nodes:10
	Output created Thu Jan 14 12:47:35 CET 2021
-->



<BIF VERSION="0.3">
<NETWORK>
<NAME>InternalNetwork</NAME>
<!-- Variables -->
<VARIABLE TYPE="nature">
    <NAME>node0</NAME>
    <OUTCOME>state0</OUTCOME>
    <OUTCOME>state1</OUTCOME>
    <OUTCOME>state2</OUTCOME>
    <PROPERTY>position = (44, 510)</PROPERTY>
</VARIABLE>
<!-- Variables -->
<VARIABLE TYPE="nature">
    <NAME>node1</NAME>
    <OUTCOME>state0</OUTCOME>
    <OUTCOME>state1</OUTCOME>
    <OUTCOME>state2</OUTCOME>
    <OUTCOME>state3</OUTCOME>
    <PROPERTY>position = (15, 150)</PROPERTY>
</VARIABLE>
<!-- Variables -->
<VARIABLE TYPE="nature">
    <NAME>node2</NAME>
    <OUTCOME>state0</OUTCOME>
    <OUTCOME>state1</OUTCOME>
    <OUTCOME>state2</OUTCOME>
    <PROPERTY>position = (45, 30)</PROPERTY>
</VARIABLE>
<!-- Variables -->
<VARIABLE TYPE="nature">
    <NAME>node3</NAME>
    <OUTCOME>state0</OUTCOME>
    <OUTCOME>state1</OUTCOME>
    <PROPERTY>position = (165, 44)</PROPERTY>
</VARIABLE>
<!-- Variables -->
<VARIABLE TYPE="nature">
    <NAME>node4</NAME>
    <OUTCOME>state0</OUTCOME>
    <OUTCOME>state1</OUTCOME>
    <OUTCOME>state2</OUTCOME>
    <OUTCOME>state3</OUTCOME>
    <PROPERTY>position = (135, 164)</PROPERTY>
</VARIABLE>
<!-- Variables -->
<VARIABLE TYPE="nature">
    <NAME>node5</NAME>
    <OUTCOME>state0</OUTCOME>
    <OUTCOME>state1</OUTCOME>
    <OUTCOME>state2</OUTCOME>
    <OUTCOME>state3</OUTCOME>
    <PROPERTY>position = (44, 270)</PROPERTY>
</VARIABLE>
<!-- Variables -->
<VARIABLE TYPE="nature">
    <NAME>node6</NAME>
    <OUTCOME>state0</OUTCOME>
    <OUTCOME>state1</OUTCOME>
    <OUTCOME>state2</OUTCOME>
    <OUTCOME>state3</OUTCOME>
    <PROPERTY>position = (255, 150)</PROPERTY>
</VARIABLE>
<!-- Variables -->
<VARIABLE TYPE="nature">
    <NAME>node7</NAME>
    <OUTCOME>state0</OUTCOME>
    <OUTCOME>state1</OUTCOME>
    <OUTCOME>state2</OUTCOME>
    <PROPERTY>position = (285, 30)</PROPERTY>
</VARIABLE>
<!-- Variables -->
<VARIABLE TYPE="nature">
    <NAME>node8</NAME>
    <OUTCOME>state0</OUTCOME>
    <OUTCOME>state1</OUTCOME>
    <PROPERTY>position = (405, 15)</PROPERTY>
</VARIABLE>
<!-- Variables -->
<VARIABLE TYPE="nature">
    <NAME>node9</NAME>
    <OUTCOME>state0</OUTCOME>
    <OUTCOME>state1</OUTCOME>
    <OUTCOME>state2</OUTCOME>
    <PROPERTY>position = (525, 29)</PROPERTY>
</VARIABLE>
<!-- Probability Distributions -->
 <DEFINITION>
      <FOR>node0</FOR>
      <GIVEN>node8</GIVEN>
      <GIVEN>node3</GIVEN>
      <GIVEN>node9</GIVEN>
      <GIVEN>node4</GIVEN>
     <TABLE>0.3159 0.1136 0.5705 0.2375 0.211 0.5515 0.7555 0.1302 0.1143 0.3955 0.5162 0.0883 0.6421 0.3057 0.0522 0.3007 0.0433 0.656 0.8319 0.1483 0.0198 0.8333 0.0085 0.1582 0.4835 0.2089 0.3076 0.5739 0.1323 0.2938 0.4363 0.0629 0.5008 0.6623 0.1875 0.1502 0.3626 0.2095 0.4279 0.3744 0.066 0.5596 0.1289 0.758 0.1131 0.1314 0.247 0.6216 0.1882 0.0122 0.7996 0.4689 0.4439 0.0872 0.0013 0.2936 0.7051 0.415 0.1361 0.4489 0.5424 0.2448 0.2128 0.3706 0.5319 0.0975 0.1623 0.7975 0.0402 0.6426 0.1759 0.1815 0.2699 0.3995 0.3306 0.0527 0.5283 0.419 0.5632 0.2396 0.1972 0.0348 0.1611 0.8041 0.3545 0.1447 0.5008 0.6518 0.2035 0.1447 0.1092 0.4498 0.441 0.288 0.5608 0.1512 0.6046 0.3479 0.0475 0.5944 0.1879 0.2177 0.093 0.6404 0.2666 0.1187 0.8308 0.0505 0.5922 0.1701 0.2377 0.7233 0.1602 0.1165 0.2924 0.4128 0.2948 0.3184 0.4174 0.2642 0.4427 0.1104 0.4469 0.1597 0.4938 0.3465 0.0039 0.6559 0.3402 0.4541 0.1011 0.4448 0.2225 0.6932 0.0843 0.4559 0.5168 0.0273 0.6501 0.2385 0.1114 0.0319 0.6366 0.3315 </TABLE>
 </DEFINITION>
 <DEFINITION>
      <FOR>node1</FOR>
      <GIVEN>node8</GIVEN>
     <TABLE>0.1341 0.0581 0.0771 0.7307 0.2235 0.247 0.3508 0.1787 </TABLE>
 </DEFINITION>
 <DEFINITION>
      <FOR>node2</FOR>
     <TABLE>0.2175 0.2492 0.5333 </TABLE>
 </DEFINITION>
 <DEFINITION>
      <FOR>node3</FOR>
     <TABLE>0.132 0.868 </TABLE>
 </DEFINITION>
 <DEFINITION>
      <FOR>node4</FOR>
      <GIVEN>node6</GIVEN>
     <TABLE>0.3628 0.09 0.0308 0.5164 0.1713 0.0855 0.2733 0.4699 0.0163 0.3541 0.3016 0.328 0.4325 0.3853 0.0084 0.1738 </TABLE>
 </DEFINITION>
 <DEFINITION>
      <FOR>node5</FOR>
      <GIVEN>node7</GIVEN>
      <GIVEN>node0</GIVEN>
     <TABLE>0.1551 0.1975 0.3744 0.273 0.1796 0.2769 0.0293 0.5142 0.696 0.0401 0.1843 0.0796 0.1689 0.5288 0.1448 0.1575 0.2655 0.0105 0.2378 0.4862 0.6094 0.1741 0.0494 0.1671 0.7424 0.0802 0.0352 0.1422 0.2698 0.4349 0.1513 0.144 0.0649 0.241 0.2483 0.4458 </TABLE>
 </DEFINITION>
 <DEFINITION>
      <FOR>node6</FOR>
      <GIVEN>node2</GIVEN>
     <TABLE>0.2449 0.3502 0.149 0.2559 0.4754 0.1144 0.394 0.0162 0.1161 0.3575 0.2177 0.3087 </TABLE>
 </DEFINITION>
 <DEFINITION>
      <FOR>node7</FOR>
     <TABLE>0.1852 0.3305 0.4843 </TABLE>
 </DEFINITION>
 <DEFINITION>
      <FOR>node8</FOR>
     <TABLE>0.4627 0.5373 </TABLE>
 </DEFINITION>
 <DEFINITION>
      <FOR>node9</FOR>
     <TABLE>0.1301 0.7179 0.152 </TABLE>
 </DEFINITION>
</NETWORK>
</BIF>
