<?xml version="1.0" encoding="US-ASCII"?>


<!--
	Bayesian network in XMLBIF v0.3 (BayesNet Interchange Format)
	Produced by JavaBayes (http://www.cs.cmu.edu/~javabayes/
	Number of nodes:4
	Output created Fri Feb 12 19:04:32 CET 2021
-->



<BIF VERSION="0.3">
<NETWORK>
<NAME>InternalNetwork</NAME>
<!-- Variables -->
<VARIABLE TYPE="nature">
    <NAME>node0</NAME>
    <OUTCOME>state0</OUTCOME>
    <OUTCOME>state1</OUTCOME>
    <PROPERTY>position = (44, 270)</PROPERTY>
</VARIABLE>
<!-- Variables -->
<VARIABLE TYPE="nature">
    <NAME>node1</NAME>
    <OUTCOME>state0</OUTCOME>
    <OUTCOME>state1</OUTCOME>
    <OUTCOME>state2</OUTCOME>
    <PROPERTY>position = (15, 150)</PROPERTY>
</VARIABLE>
<!-- Variables -->
<VARIABLE TYPE="nature">
    <NAME>node2</NAME>
    <OUTCOME>state0</OUTCOME>
    <OUTCOME>state1</OUTCOME>
    <OUTCOME>state2</OUTCOME>
    <PROPERTY>position = (45, 30)</PROPERTY>
</VARIABLE>
<!-- Variables -->
<VARIABLE TYPE="nature">
    <NAME>node3</NAME>
    <OUTCOME>state0</OUTCOME>
    <OUTCOME>state1</OUTCOME>
    <PROPERTY>position = (165, 44)</PROPERTY>
</VARIABLE>
<!-- Probability Distributions -->
 <DEFINITION>
      <FOR>node0</FOR>
      <GIVEN>node3</GIVEN>
      <GIVEN>node1</GIVEN>
     <TABLE>0.4227 0.5773 0.7429 0.2571 0.3448 0.6552 0.2892 0.7108 0.3797 0.6203 0.548 0.452 </TABLE>
 </DEFINITION>
 <DEFINITION>
      <FOR>node1</FOR>
      <GIVEN>node2</GIVEN>
     <TABLE>0.3034 0.1063 0.5903 0.4887 0.4442 0.0671 0.4225 0.5277 0.0498 </TABLE>
 </DEFINITION>
 <DEFINITION>
      <FOR>node2</FOR>
     <TABLE>0.6309 0.2751 0.094 </TABLE>
 </DEFINITION>
 <DEFINITION>
      <FOR>node3</FOR>
     <TABLE>0.2695 0.7305 </TABLE>
 </DEFINITION>
</NETWORK>
</BIF>
