<?xml version="1.0" encoding="US-ASCII"?>


<!--
	Bayesian network in XMLBIF v0.3 (BayesNet Interchange Format)
	Produced by JavaBayes (http://www.cs.cmu.edu/~javabayes/
	Number of nodes:10
	Output created Thu Jan 14 12:47:35 CET 2021
-->



<BIF VERSION="0.3">
<NETWORK>
<NAME>InternalNetwork</NAME>
<!-- Variables -->
<VARIABLE TYPE="nature">
    <NAME>node0</NAME>
    <OUTCOME>state0</OUTCOME>
    <OUTCOME>state1</OUTCOME>
    <PROPERTY>position = (15, 150)</PROPERTY>
</VARIABLE>
<!-- Variables -->
<VARIABLE TYPE="nature">
    <NAME>node1</NAME>
    <OUTCOME>state0</OUTCOME>
    <OUTCOME>state1</OUTCOME>
    <OUTCOME>state2</OUTCOME>
    <OUTCOME>state3</OUTCOME>
    <PROPERTY>position = (15, 390)</PROPERTY>
</VARIABLE>
<!-- Variables -->
<VARIABLE TYPE="nature">
    <NAME>node2</NAME>
    <OUTCOME>state0</OUTCOME>
    <OUTCOME>state1</OUTCOME>
    <OUTCOME>state2</OUTCOME>
    <OUTCOME>state3</OUTCOME>
    <OUTCOME>state4</OUTCOME>
    <PROPERTY>position = (45, 30)</PROPERTY>
</VARIABLE>
<!-- Variables -->
<VARIABLE TYPE="nature">
    <NAME>node3</NAME>
    <OUTCOME>state0</OUTCOME>
    <OUTCOME>state1</OUTCOME>
    <OUTCOME>state2</OUTCOME>
    <PROPERTY>position = (135, 164)</PROPERTY>
</VARIABLE>
<!-- Variables -->
<VARIABLE TYPE="nature">
    <NAME>node4</NAME>
    <OUTCOME>state0</OUTCOME>
    <OUTCOME>state1</OUTCOME>
    <OUTCOME>state2</OUTCOME>
    <OUTCOME>state3</OUTCOME>
    <PROPERTY>position = (255, 150)</PROPERTY>
</VARIABLE>
<!-- Variables -->
<VARIABLE TYPE="nature">
    <NAME>node5</NAME>
    <OUTCOME>state0</OUTCOME>
    <OUTCOME>state1</OUTCOME>
    <OUTCOME>state2</OUTCOME>
    <PROPERTY>position = (165, 44)</PROPERTY>
</VARIABLE>
<!-- Variables -->
<VARIABLE TYPE="nature">
    <NAME>node6</NAME>
    <OUTCOME>state0</OUTCOME>
    <OUTCOME>state1</OUTCOME>
    <OUTCOME>state2</OUTCOME>
    <PROPERTY>position = (375, 135)</PROPERTY>
</VARIABLE>
<!-- Variables -->
<VARIABLE TYPE="nature">
    <NAME>node7</NAME>
    <OUTCOME>state0</OUTCOME>
    <OUTCOME>state1</OUTCOME>
    <OUTCOME>state2</OUTCOME>
    <PROPERTY>position = (495, 149)</PROPERTY>
</VARIABLE>
<!-- Variables -->
<VARIABLE TYPE="nature">
    <NAME>node8</NAME>
    <OUTCOME>state0</OUTCOME>
    <OUTCOME>state1</OUTCOME>
    <PROPERTY>position = (285, 30)</PROPERTY>
</VARIABLE>
<!-- Variables -->
<VARIABLE TYPE="nature">
    <NAME>node9</NAME>
    <OUTCOME>state0</OUTCOME>
    <OUTCOME>state1</OUTCOME>
    <PROPERTY>position = (615, 164)</PROPERTY>
</VARIABLE>
<!-- Probability Distributions -->
 <DEFINITION>
      <FOR>node0</FOR>
      <GIVEN>node3</GIVEN>
     <TABLE>0.8207 0.1793 0.9315 0.0685 0.4754 0.5246 </TABLE>
 </DEFINITION>
 <DEFINITION>
      <FOR>node1</FOR>
      <GIVEN>node7</GIVEN>
      <GIVEN>node4</GIVEN>
      <GIVEN>node2</GIVEN>
     <TABLE>0.1638 0.0797 0.102 0.6545 0.1047 0.0128 0.7767 0.1058 0.2477 0.0684 0.3852 0.2987 0.1761 0.2798 0.5254 0.0187 0.0829 0.19 0.4332 0.2939 0.2303 0.4791 0.1427 0.1479 0.8079 0.0827 0.0956 0.0138 0.3526 0.4001 0.0656 0.1817 0.1815 0.1203 0.4791 0.2191 0.1912 0.0891 0.3772 0.3425 0.0251 0.6052 2.0E-4 0.3695 0.4827 0.1516 0.1286 0.2371 0.335 0.1689 0.3878 0.1083 0.0821 0.348 0.4415 0.1284 0.2159 0.5548 0.1127 0.1166 0.4314 0.0102 0.2631 0.2953 0.5467 0.1198 0.0052 0.3283 0.563 0.0641 0.0812 0.2917 0.5928 0.0986 0.2884 0.0202 0.0537 0.7378 0.0493 0.1592 0.2699 0.2115 0.5033 0.0153 0.1117 0.2305 0.2594 0.3984 0.1016 0.1003 0.1972 0.6009 0.1352 0.5848 0.078 0.202 0.3267 0.2188 0.351 0.1035 0.2046 0.0752 0.3892 0.331 0.3685 0.1258 0.0445 0.4612 0.1645 0.3611 0.0533 0.4211 0.2619 0.1845 0.4472 0.1064 0.2774 0.132 0.2893 0.3013 0.2026 0.0113 0.4515 0.3346 0.3698 0.4062 0.008 0.216 0.2183 0.1181 0.2448 0.4188 0.1576 0.3105 0.5158 0.0161 0.4207 0.2146 0.2017 0.163 0.2115 0.3399 0.2682 0.1804 0.2745 0.09 0.3489 0.2866 0.0097 0.178 0.3899 0.4224 0.3066 0.347 0.0128 0.3336 0.3541 0.2316 0.0555 0.3588 0.3746 0.2396 0.1721 0.2137 0.1216 0.0587 0.2252 0.5945 0.0586 0.7702 0.0012 0.17 0.0459 0.2308 0.2835 0.4398 0.2635 0.2528 0.1789 0.3048 0.0666 0.3385 0.4797 0.1152 0.2689 0.3886 0.3118 0.0307 0.0955 0.3926 0.3762 0.1357 0.0479 0.0239 0.4147 0.5135 0.0498 0.0251 0.3041 0.621 0.3063 0.278 0.3926 0.0231 0.0243 0.1436 0.3462 0.4859 0.3661 0.0246 0.5441 0.0652 0.0825 0.575 0.0104 0.3321 0.3847 0.1265 0.4489 0.0399 0.1888 0.2563 0.1351 0.4198 0.0391 0.5454 0.3348 0.0807 0.2171 0.1753 0.3072 0.3004 0.0488 0.1738 0.6314 0.146 0.1428 0.076 0.5991 0.1821 </TABLE>
 </DEFINITION>
 <DEFINITION>
      <FOR>node2</FOR>
     <TABLE>0.2037 0.1453 0.1898 0.3077 0.1535 </TABLE>
 </DEFINITION>
 <DEFINITION>
      <FOR>node3</FOR>
      <GIVEN>node1</GIVEN>
     <TABLE>0.8608 0.0216 0.1176 0.8656 0.1054 0.029 0.0308 0.8522 0.117 0.4215 0.2727 0.3058 </TABLE>
 </DEFINITION>
 <DEFINITION>
      <FOR>node4</FOR>
      <GIVEN>node5</GIVEN>
     <TABLE>0.0727 0.7203 0.0286 0.1784 0.0588 0.4721 0.065 0.4041 0.282 0.5996 0.1043 0.0141 </TABLE>
 </DEFINITION>
 <DEFINITION>
      <FOR>node5</FOR>
     <TABLE>0.4053 0.1536 0.4411 </TABLE>
 </DEFINITION>
 <DEFINITION>
      <FOR>node6</FOR>
      <GIVEN>node8</GIVEN>
     <TABLE>0.3848 0.3062 0.309 0.1128 0.0343 0.8529 </TABLE>
 </DEFINITION>
 <DEFINITION>
      <FOR>node7</FOR>
      <GIVEN>node6</GIVEN>
     <TABLE>0.2333 0.0572 0.7095 0.1446 0.0628 0.7926 0.0558 0.788 0.1562 </TABLE>
 </DEFINITION>
 <DEFINITION>
      <FOR>node8</FOR>
     <TABLE>0.6618 0.3382 </TABLE>
 </DEFINITION>
 <DEFINITION>
      <FOR>node9</FOR>
      <GIVEN>node0</GIVEN>
     <TABLE>0.3391 0.6609 0.2553 0.7447 </TABLE>
 </DEFINITION>
</NETWORK>
</BIF>
