<?xml version="1.0" encoding="US-ASCII"?>


<!--
	Bayesian network in XMLBIF v0.3 (BayesNet Interchange Format)
	Produced by JavaBayes (http://www.cs.cmu.edu/~javabayes/
	Number of nodes:10
	Output created Wed Jan 20 11:17:11 CET 2021
-->



<BIF VERSION="0.3">
<NETWORK>
<NAME>InternalNetwork</NAME>
<!-- Variables -->
<VARIABLE TYPE="nature">
    <NAME>node0</NAME>
    <OUTCOME>state0</OUTCOME>
    <OUTCOME>state1</OUTCOME>
    <OUTCOME>state2</OUTCOME>
    <PROPERTY>position = (45, 30)</PROPERTY>
</VARIABLE>
<!-- Variables -->
<VARIABLE TYPE="nature">
    <NAME>node1</NAME>
    <OUTCOME>state0</OUTCOME>
    <OUTCOME>state1</OUTCOME>
    <OUTCOME>state2</OUTCOME>
    <OUTCOME>state3</OUTCOME>
    <OUTCOME>state4</OUTCOME>
    <PROPERTY>position = (44, 270)</PROPERTY>
</VARIABLE>
<!-- Variables -->
<VARIABLE TYPE="nature">
    <NAME>node2</NAME>
    <OUTCOME>state0</OUTCOME>
    <OUTCOME>state1</OUTCOME>
    <OUTCOME>state2</OUTCOME>
    <PROPERTY>position = (15, 390)</PROPERTY>
</VARIABLE>
<!-- Variables -->
<VARIABLE TYPE="nature">
    <NAME>node3</NAME>
    <OUTCOME>state0</OUTCOME>
    <OUTCOME>state1</OUTCOME>
    <OUTCOME>state2</OUTCOME>
    <OUTCOME>state3</OUTCOME>
    <PROPERTY>position = (15, 150)</PROPERTY>
</VARIABLE>
<!-- Variables -->
<VARIABLE TYPE="nature">
    <NAME>node4</NAME>
    <OUTCOME>state0</OUTCOME>
    <OUTCOME>state1</OUTCOME>
    <OUTCOME>state2</OUTCOME>
    <PROPERTY>position = (165, 44)</PROPERTY>
</VARIABLE>
<!-- Variables -->
<VARIABLE TYPE="nature">
    <NAME>node5</NAME>
    <OUTCOME>state0</OUTCOME>
    <OUTCOME>state1</OUTCOME>
    <PROPERTY>position = (135, 164)</PROPERTY>
</VARIABLE>
<!-- Variables -->
<VARIABLE TYPE="nature">
    <NAME>node6</NAME>
    <OUTCOME>state0</OUTCOME>
    <OUTCOME>state1</OUTCOME>
    <OUTCOME>state2</OUTCOME>
    <PROPERTY>position = (164, 284)</PROPERTY>
</VARIABLE>
<!-- Variables -->
<VARIABLE TYPE="nature">
    <NAME>node7</NAME>
    <OUTCOME>state0</OUTCOME>
    <OUTCOME>state1</OUTCOME>
    <OUTCOME>state2</OUTCOME>
    <OUTCOME>state3</OUTCOME>
    <PROPERTY>position = (285, 30)</PROPERTY>
</VARIABLE>
<!-- Variables -->
<VARIABLE TYPE="nature">
    <NAME>node8</NAME>
    <OUTCOME>state0</OUTCOME>
    <OUTCOME>state1</OUTCOME>
    <OUTCOME>state2</OUTCOME>
    <OUTCOME>state3</OUTCOME>
    <PROPERTY>position = (405, 15)</PROPERTY>
</VARIABLE>
<!-- Variables -->
<VARIABLE TYPE="nature">
    <NAME>node9</NAME>
    <OUTCOME>state0</OUTCOME>
    <OUTCOME>state1</OUTCOME>
    <OUTCOME>state2</OUTCOME>
    <OUTCOME>state3</OUTCOME>
    <PROPERTY>position = (525, 29)</PROPERTY>
</VARIABLE>
<!-- Probability Distributions -->
 <DEFINITION>
      <FOR>node0</FOR>
     <TABLE>0.6317 0.2031 0.1652 </TABLE>
 </DEFINITION>
 <DEFINITION>
      <FOR>node1</FOR>
      <GIVEN>node3</GIVEN>
      <GIVEN>node7</GIVEN>
     <TABLE>0.3175 0.2265 0.0055 0.4098 0.0407 0.0542 0.1514 0.1628 0.384 0.2476 0.0904 0.2871 0.1208 0.3038 0.1979 0.1431 0.1405 0.2224 0.2857 0.2083 0.635 0.0213 0.0168 0.0 0.3269 0.0635 0.0472 0.4388 0.006 0.4445 0.0302 0.1135 0.1287 0.5463 0.1813 0.0623 0.4027 0.1563 0.2721 0.1066 0.2099 0.0971 0.0266 0.107 0.5594 0.2482 0.1919 0.4262 0.1319 0.0018 0.1431 0.2213 0.4813 0.1285 0.0258 0.1621 0.0103 0.3247 0.0463 0.4566 0.179 0.3266 0.0605 0.0888 0.3451 0.0982 0.0611 0.0515 0.4259 0.3633 0.0483 0.5643 0.0223 0.2679 0.0972 0.0252 0.6327 0.015 0.1769 0.1502 </TABLE>
 </DEFINITION>
 <DEFINITION>
      <FOR>node2</FOR>
      <GIVEN>node8</GIVEN>
      <GIVEN>node1</GIVEN>
      <GIVEN>node4</GIVEN>
     <TABLE>0.7704 0.1664 0.0632 0.2221 0.5704 0.2075 0.5112 0.3381 0.1507 0.197 0.0087 0.7943 0.8332 0.1391 0.0277 0.0328 0.5494 0.4178 0.1404 0.8321 0.0275 0.8171 0.0616 0.1213 0.2407 0.0848 0.6745 0.5578 0.0323 0.4099 0.2679 0.251 0.4811 0.5676 0.0057 0.4267 0.4783 0.2523 0.2694 0.2419 0.4986 0.2595 0.3341 0.6279 0.038 0.8189 0.145 0.0361 0.0828 0.6128 0.3044 0.3876 0.2457 0.3667 0.1117 0.6494 0.2389 0.8211 0.1728 0.0061 0.3197 0.1903 0.49 0.4941 0.3425 0.1634 0.0937 0.1319 0.7744 0.061 0.0266 0.9124 0.0545 0.7024 0.2431 0.8938 0.0895 0.0167 0.8098 0.1286 0.0616 0.4683 0.2719 0.2598 0.5159 0.3534 0.1307 0.2976 0.2193 0.4831 0.2908 0.7082 0.001 0.1572 0.6963 0.1465 0.1276 0.5607 0.3117 0.3195 0.2941 0.3864 0.4075 0.5137 0.0788 0.4052 0.2772 0.3176 0.8089 0.0164 0.1747 0.8428 0.1206 0.0366 0.4029 0.1857 0.4114 0.5109 0.0355 0.4536 0.4357 0.0872 0.4771 0.137 0.1654 0.6976 0.8408 0.039 0.1202 0.0459 0.9054 0.0487 0.3019 0.4538 0.2443 0.0149 0.7227 0.2624 0.046 0.3368 0.6172 0.0405 0.1771 0.7824 0.0555 0.6368 0.3077 0.0769 0.7774 0.1457 0.0468 0.8801 0.0731 0.1056 0.4595 0.4349 0.5575 0.3684 0.0741 0.0164 0.0625 0.9211 0.7832 0.1133 0.1035 0.061 0.0315 0.9075 0.1229 0.2414 0.6357 0.1199 0.1479 0.7322 0.0788 0.5184 0.4028 0.2545 0.112 0.6335 </TABLE>
 </DEFINITION>
 <DEFINITION>
      <FOR>node3</FOR>
      <GIVEN>node5</GIVEN>
     <TABLE>0.6182 0.3586 0.018 0.0052 0.207 0.7385 0.0163 0.0382 </TABLE>
 </DEFINITION>
 <DEFINITION>
      <FOR>node4</FOR>
     <TABLE>0.3255 0.6205 0.054 </TABLE>
 </DEFINITION>
 <DEFINITION>
      <FOR>node5</FOR>
      <GIVEN>node6</GIVEN>
     <TABLE>0.4861 0.5139 0.1661 0.8339 0.8629 0.1371 </TABLE>
 </DEFINITION>
 <DEFINITION>
      <FOR>node6</FOR>
      <GIVEN>node0</GIVEN>
      <GIVEN>node9</GIVEN>
     <TABLE>0.2966 0.0236 0.6798 0.2743 0.2119 0.5138 0.5607 0.2479 0.1914 0.576 0.2013 0.2227 0.1235 0.6563 0.2202 0.7222 0.1343 0.1435 0.4034 0.0688 0.5278 0.6696 0.0426 0.2878 0.5997 0.2472 0.1531 0.1027 0.0174 0.8799 0.7712 0.1121 0.1167 0.7538 0.0939 0.1523 </TABLE>
 </DEFINITION>
 <DEFINITION>
      <FOR>node7</FOR>
     <TABLE>0.1328 0.4371 0.1584 0.2717 </TABLE>
 </DEFINITION>
 <DEFINITION>
      <FOR>node8</FOR>
     <TABLE>0.2705 0.2942 0.0582 0.3771 </TABLE>
 </DEFINITION>
 <DEFINITION>
      <FOR>node9</FOR>
     <TABLE>0.604 0.2253 0.0766 0.0941 </TABLE>
 </DEFINITION>
</NETWORK>
</BIF>
